{"learner":{"attributes":{"scikit_learn":"{\"_estimator_type\": \"regressor\"}"},"feature_names":[],"feature_types":[],"gradient_booster":{"model":{"gbtree_model_param":{"num_parallel_tree":"1","num_trees":"100"},"iteration_indptr":[0,1,2,3,4,5,6,7,8,9,10,11,12,13,14,15,16,17,18,19,20,21,22,23,24,25,26,27,28,29,30,31,32,33,34,35,36,37,38,39,40,41,42,43,44,45,46,47,48,49,50,51,52,53,54,55,56,57,58,59,60,61,62,63,64,65,66,67,68,69,70,71,72,73,74,75,76,77,78,79,80,81,82,83,84,85,86,87,88,89,90,91,92,93,94,95,96,97,98,99,100],"tree_info":[0,0,0,0,0,0,0,0,0,0,0,0,0,0,0,0,0,0,0,0,0,0,0,0,0,0,0,0,0,0,0,0,0,0,0,0,0,0,0,0,0,0,0,0,0,0,0,0,0,0,0,0,0,0,0,0,0,0,0,0,0,0,0,0,0,0,0,0,0,0,0,0,0,0,0,0,0,0,0,0,0,0,0,0,0,0,0,0,0,0,0,0,0,0,0,0,0,0,0,0],"trees":[{"base_weights":[1.6548541E-6,-1.5709159E1,2.4477833E1,-3.0172245E1,-5.086231E0,1.3057002E1,3.2741028E1,-3.781577E1,-2.4895658E1,-1.2443863E1,-1.5817338E0,8.816716E0,1.773016E1,2.8439013E1,3.978286E1,-4.0736042E1,-3.4669155E1,-2.7261251E1,-2.0684622E1,-1.53956995E1,-1.0358799E1,1.5189219E-1,-3.936673E0,6.2941666E0,1.0923541E1,1.9996218E1,1.43564205E1,3.124184E1,2.4128645E1,4.2401897E1,3.4959763E1,-4.27055E1,-3.9258762E1,-3.611386E1,-3.3003025E1,-2.9321436E1,-2.5630297E1,-2.2419786E1,-1.8943472E1,-1.6701824E1,-1.4095145E1,-1.1485696E1,-8.298663E0,-7.185085E-1,3.5347712E0,-5.112357E0,1.8591473E-1,8.2509E0,3.9921892E0,1.281157E1,8.545852E0,1.6367176E1,2.1511341E1,1.1224817E1,1.5722872E1,2.8259708E1,3.4298687E1,2.2268375E1,2.6935995E1,3.9411526E1,4.6594437E1,3.774102E1,3.1840757E1,-4.327836E0,-4.1550803E0,-4.0233893E0,-3.8272493E0,-3.6652634E0,-3.5370176E0,-3.323621E0,-3.176601E0,-2.9942703E0,-2.8225653E0,-2.6084847E0,-2.4498518E0,-2.344587E0,-2.1640108E0,-1.8217738E0,-1.9771436E0,-1.5861163E0,-1.7644137E0,-1.3085457E0,-1.536899E0,-1.029261E0,-1.3030037E0,-7.121199E-1,-9.9456614E-1,5.417454E-2,-2.1081737E-1,1.7853434E-1,4.2854747E-1,-3.9268515E-1,-6.309509E-1,1.2573962E-1,-8.889129E-2,7.0550835E-1,9.4210863E-1,5.1333183E-1,2.9328027E-1,1.2207602E0,1.39056E0,7.0958936E-1,9.6377486E-1,1.595364E0,1.7138184E0,2.0190415E0,2.3186615E0,1.2573464E0,9.8292917E-1,1.4599065E0,1.7935625E0,2.7157352E0,3.047327E0,3.206065E0,3.5172994E0,2.3848376E0,2.0575607E0,3.0024126E0,2.4312093E0,3.7980716E0,4.1027083E0,4.430816E0,4.8421855E0,3.5316415E0,4.1183767E0,3.0410547E0,3.4623044E0],"categories":[],"categories_nodes":[],"categories_segments":[],"categories_sizes":[],"default_left":[0,0,0,0,0,0,0,0,0,0,0,0,0,0,0,0,0,0,0,0,0,0,0,0,0,0,0,0,0,0,0,0,0,0,0,0,0,0,0,0,0,0,0,0,0,0,0,0,0,0,0,0,0,0,0,0,0,0,0,0,0,0,0,0,0,0,0,0,0,0,0,0,0,0,0,0,0,0,0,0,0,0,0,0,0,0,0,0,0,0,0,0,0,0,0,0,0,0,0,0,0,0,0,0,0,0,0,0,0,0,0,0,0,0,0,0,0,0,0,0,0,0,0,0,0,0,0],"id":0,"left_children":[1,3,5,7,9,11,13,15,17,19,21,23,25,27,29,31,33,35,37,39,41,43,45,47,49,51,53,55,57,59,61,63,65,67,69,71,73,75,77,79,81,83,85,87,89,91,93,95,97,99,101,103,105,107,109,111,113,115,117,119,121,123,125,-1,-1,-1,-1,-1,-1,-1,-1,-1,-1,-1,-1,-1,-1,-1,-1,-1,-1,-1,-1,-1,-1,-1,-1,-1,-1,-1,-1,-1,-1,-1,-1,-1,-1,-1,-1,-1,-1,-1,-1,-1,-1,-1,-1,-1,-1,-1,-1,-1,-1,-1,-1,-1,-1,-1,-1,-1,-1,-1,-1,-1,-1,-1,-1],"loss_changes":[2.8839542E8,7.0186584E7,2.7667456E7,7.801104E6,6.791155E6,2.438638E6,5.151968E6,7.24536E5,1.139504E6,5.22841E5,7.283539E5,3.428705E5,4.47318E5,1.274984E6,8.13368E5,1.1752E5,9.036E4,2.4546E5,1.23958E5,5.9514E4,1.15523E5,3.0257234E5,3.666515E5,1.3225538E5,1.577285E5,1.92209E5,1.00504E5,5.82312E5,2.16722E5,5.22232E5,1.95774E5,9.806E3,2.0984E4,6.86E3,4.042E3,2.1194E4,2.0406E4,1.5985E4,1.1992E4,1.36175E4,2.24755E4,5.9177E4,3.408575E4,1.4313916E5,2.760975E4,8.3512625E4,1.9333996E4,2.21465E4,1.6300203E4,1.277875E4,2.457425E4,3.01675E3,5.4197E4,1.3335125E4,4.04655E4,7.8218E4,6.0688E4,6.6465E4,1.33617E5,5.4856E4,7.0536E4,9.8696E4,4.1565E4,0E0,0E0,0E0,0E0,0E0,0E0,0E0,0E0,0E0,0E0,0E0,0E0,0E0,0E0,0E0,0E0,0E0,0E0,0E0,0E0,0E0,0E0,0E0,0E0,0E0,0E0,0E0,0E0,0E0,0E0,0E0,0E0,0E0,0E0,0E0,0E0,0E0,0E0,0E0,0E0,0E0,0E0,0E0,0E0,0E0,0E0,0E0,0E0,0E0,0E0,0E0,0E0,0E0,0E0,0E0,0E0,0E0,0E0,0E0,0E0,0E0,0E0,0E0,0E0],"parents":[2147483647,0,0,1,1,2,2,3,3,4,4,5,5,6,6,7,7,8,8,9,9,10,10,11,11,12,12,13,13,14,14,15,15,16,16,17,17,18,18,19,19,20,20,21,21,22,22,23,23,24,24,25,25,26,26,27,27,28,28,29,29,30,30,31,31,32,32,33,33,34,34,35,35,36,36,37,37,38,38,39,39,40,40,41,41,42,42,43,43,44,44,45,45,46,46,47,47,48,48,49,49,50,50,51,51,52,52,53,53,54,54,55,55,56,56,57,57,58,58,59,59,60,60,61,61,62,62],"right_children":[2,4,6,8,10,12,14,16,18,20,22,24,26,28,30,32,34,36,38,40,42,44,46,48,50,52,54,56,58,60,62,64,66,68,70,72,74,76,78,80,82,84,86,88,90,92,94,96,98,100,102,104,106,108,110,112,114,116,118,120,122,124,126,-1,-1,-1,-1,-1,-1,-1,-1,-1,-1,-1,-1,-1,-1,-1,-1,-1,-1,-1,-1,-1,-1,-1,-1,-1,-1,-1,-1,-1,-1,-1,-1,-1,-1,-1,-1,-1,-1,-1,-1,-1,-1,-1,-1,-1,-1,-1,-1,-1,-1,-1,-1,-1,-1,-1,-1,-1,-1,-1,-1,-1,-1,-1,-1],"split_conditions":[7.019E1,4.026E1,9.335E1,2.243E1,5.475E1,8.26E1,1.109E2,1.451E1,3.368E1,4.621E1,2E0,7.599E1,2E0,2E0,2E0,9.03E0,1.873E1,2.813E1,3.697E1,4.319E1,5.207E1,6.391E1,6.391E1,2E0,2E0,8.577E1,8.577E1,1.0208E2,1.0392E2,1.1619E2,3E0,7.75E0,1.174E1,1.689E1,2.184E1,2.623E1,3.198E1,3.487E1,2E0,2E0,2E0,2E0,2E0,1E0,6.578E1,3E0,3E0,7.284E1,3E0,8.059E1,7.884E1,1E0,9.029E1,3E0,9.094E1,9.863E1,1.044E2,3E0,3E0,1.1385E2,1.177E2,1.1619E2,1.166E2,-4.327836E0,-4.1550803E0,-4.0233893E0,-3.8272493E0,-3.6652634E0,-3.5370176E0,-3.323621E0,-3.176601E0,-2.9942703E0,-2.8225653E0,-2.6084847E0,-2.4498518E0,-2.344587E0,-2.1640108E0,-1.8217738E0,-1.9771436E0,-1.5861163E0,-1.7644137E0,-1.3085457E0,-1.536899E0,-1.029261E0,-1.3030037E0,-7.121199E-1,-9.9456614E-1,5.417454E-2,-2.1081737E-1,1.7853434E-1,4.2854747E-1,-3.9268515E-1,-6.309509E-1,1.2573962E-1,-8.889129E-2,7.0550835E-1,9.4210863E-1,5.1333183E-1,2.9328027E-1,1.2207602E0,1.39056E0,7.0958936E-1,9.6377486E-1,1.595364E0,1.7138184E0,2.0190415E0,2.3186615E0,1.2573464E0,9.8292917E-1,1.4599065E0,1.7935625E0,2.7157352E0,3.047327E0,3.206065E0,3.5172994E0,2.3848376E0,2.0575607E0,3.0024126E0,2.4312093E0,3.7980716E0,4.1027083E0,4.430816E0,4.8421855E0,3.5316415E0,4.1183767E0,3.0410547E0,3.4623044E0],"split_indices":[0,0,0,0,0,0,0,0,0,0,1,0,1,1,1,0,0,0,0,0,0,0,0,1,1,0,0,0,0,0,1,0,0,0,0,0,0,0,1,1,1,1,1,1,0,1,1,0,1,0,0,4,0,1,0,0,0,1,1,0,0,0,0,0,0,0,0,0,0,0,0,0,0,0,0,0,0,0,0,0,0,0,0,0,0,0,0,0,0,0,0,0,0,0,0,0,0,0,0,0,0,0,0,0,0,0,0,0,0,0,0,0,0,0,0,0,0,0,0,0,0,0,0,0,0,0,0],"split_type":[0,0,0,0,0,0,0,0,0,0,0,0,0,0,0,0,0,0,0,0,0,0,0,0,0,0,0,0,0,0,0,0,0,0,0,0,0,0,0,0,0,0,0,0,0,0,0,0,0,0,0,0,0,0,0,0,0,0,0,0,0,0,0,0,0,0,0,0,0,0,0,0,0,0,0,0,0,0,0,0,0,0,0,0,0,0,0,0,0,0,0,0,0,0,0,0,0,0,0,0,0,0,0,0,0,0,0,0,0,0,0,0,0,0,0,0,0,0,0,0,0,0,0,0,0,0,0],"sum_hessian":[7.5E5,4.56824E5,2.93176E5,1.93446E5,2.63378E5,1.23074E5,1.70102E5,7.9001E4,1.14445E5,8.4974E4,1.78404E5,6.4527E4,5.8547E4,1.05596E5,6.4506E4,4.0968E4,3.8033E4,7.3276E4,4.1169E4,3.5173E4,4.9801E4,1.02758E5,7.5646E4,2.9368E4,3.5159E4,3.502E4,2.3527E4,6.3984E4,4.1612E4,4.18E4,2.2706E4,1.7547E4,2.3421E4,2.0359E4,1.7674E4,3.237E4,4.0906E4,2.0614E4,2.0555E4,1.7543E4,1.763E4,3.2189E4,1.7612E4,8.173E4,2.1028E4,5.886E4,1.6786E4,1.5873E4,1.3495E4,1.9595E4,1.5564E4,1.0318E4,2.4702E4,7.15E3,1.6377E4,3.2393E4,3.1591E4,2.5033E4,1.6579E4,2.4404E4,1.7396E4,1.1997E4,1.0709E4,1.1704E4,5.843E3,1.1757E4,1.1664E4,1.1778E4,8.581E3,1.4849E4,2.825E3,2.0641E4,1.1729E4,2.9169E4,1.1737E4,8.888E3,1.1726E4,1.0966E4,9.589E3,9.281E3,8.262E3,9.841E3,7.789E3,1.8164E4,1.4025E4,1.0273E4,7.339E3,4.2861E4,3.8869E4,6.315E3,1.4713E4,2.9576E4,2.9284E4,8.406E3,8.38E3,7.854E3,8.019E3,6.495E3,7E3,1.2633E4,6.962E3,6.689E3,8.875E3,6.73E3,3.588E3,1.3819E4,1.0883E4,3.632E3,3.518E3,1.0866E4,5.511E3,2.1633E4,1.076E4,8.885E3,2.2706E4,1.2941E4,1.2092E4,7.611E3,8.968E3,1.2955E4,1.1449E4,7.739E3,9.657E3,7.046E3,4.951E3,7.081E3,3.628E3],"tree_param":{"num_deleted":"0","num_feature":"5","num_nodes":"127","size_leaf_vector":"1"}},{"base_weights":[1.9391362E-5,-1.4138374E1,2.20303E1,-2.7329561E1,-4.701284E0,1.2355843E1,2.9943874E1,-3.4034576E1,-2.2579283E1,-1.1053391E1,-1.2481027E0,8.979588E0,1.790137E1,2.632231E1,3.6276997E1,-3.6662838E1,-3.12026E1,-2.4535275E1,-1.8830645E1,-1.3832296E1,-8.892864E0,3.2216936E-1,-3.384465E0,5.664833E0,1.0829212E1,1.9973083E1,1.4721095E1,2.8877281E1,2.2385761E1,3.86948E1,3.1813025E1,-3.8435436E1,-3.533322E1,-3.2502827E1,-2.970309E1,-2.6389471E1,-2.306739E1,-2.0178028E1,-1.7253794E1,-1.514441E1,-1.25243635E1,-1.02164E1,-7.243586E0,-4.4465885E-1,3.181323E0,-4.443425E0,1.6732462E-1,7.425914E0,3.5930293E0,1.2634871E1,8.450815E0,1.8373764E1,2.168842E1,1.3139292E1,1.6666359E1,2.65671E1,3.1658476E1,2.0588923E1,2.5042637E1,3.596324E1,4.1935524E1,3.4248085E1,2.9020418E1,-3.8950894E0,-3.7396438E0,-3.621085E0,-3.4445572E0,-3.315944E0,-3.1997104E0,-3.0770805E0,-2.9473617E0,-2.6948578E0,-2.5403326E0,-2.347645E0,-2.2048874E0,-2.1101549E0,-1.9476284E0,-1.6642872E0,-1.7958593E0,-1.4652247E0,-1.6638701E0,-1.1587274E0,-1.3725332E0,-9.1358614E-1,-1.1603312E0,-6.165692E-1,-8.7232715E-1,7.3250405E-2,-1.7439447E-1,2.0493226E-1,4.158938E-1,-3.3656105E-1,-5.5341E-1,1.131671E-1,-8.000334E-2,6.349664E-1,8.4790957E-1,4.6200648E-1,2.6395628E-1,1.1530546E0,1.473078E0,6.798379E-1,9.631772E-1,1.7736018E0,1.9566545E0,2.0770957E0,2.3266566E0,1.4322174E0,1.1840264E0,1.8158978E0,1.4979101E0,2.5033867E0,2.7947242E0,3.0933363E0,3.3006897E0,2.2081769E0,1.9033012E0,2.7876863E0,2.2626884E0,3.5142362E0,3.751701E0,3.9877915E0,4.358017E0,3.2672856E0,3.8810246E0,2.8060822E0,3.2217088E0],"categories":[],"categories_nodes":[],"categories_segments":[],"categories_sizes":[],"default_left":[0,0,0,0,0,0,0,0,0,0,0,0,0,0,0,0,0,0,0,0,0,0,0,0,0,0,0,0,0,0,0,0,0,0,0,0,0,0,0,0,0,0,0,0,0,0,0,0,0,0,0,0,0,0,0,0,0,0,0,0,0,0,0,0,0,0,0,0,0,0,0,0,0,0,0,0,0,0,0,0,0,0,0,0,0,0,0,0,0,0,0,0,0,0,0,0,0,0,0,0,0,0,0,0,0,0,0,0,0,0,0,0,0,0,0,0,0,0,0,0,0,0,0,0,0,0,0],"id":1,"left_children":[1,3,5,7,9,11,13,15,17,19,21,23,25,27,29,31,33,35,37,39,41,43,45,47,49,51,53,55,57,59,61,63,65,67,69,71,73,75,77,79,81,83,85,87,89,91,93,95,97,99,101,103,105,107,109,111,113,115,117,119,121,123,125,-1,-1,-1,-1,-1,-1,-1,-1,-1,-1,-1,-1,-1,-1,-1,-1,-1,-1,-1,-1,-1,-1,-1,-1,-1,-1,-1,-1,-1,-1,-1,-1,-1,-1,-1,-1,-1,-1,-1,-1,-1,-1,-1,-1,-1,-1,-1,-1,-1,-1,-1,-1,-1,-1,-1,-1,-1,-1,-1,-1,-1,-1,-1,-1],"loss_changes":[2.3360522E8,5.686837E7,2.2445136E7,6.06736E6,5.8414465E6,2.46968E6,3.69776E6,5.86888E5,8.17212E5,5.62965E5,5.787554E5,5.026605E5,3.28604E5,1.031264E6,6.31952E5,9.52E4,7.3188E4,1.98832E5,8.0899E4,7.0209E4,1.1511E5,2.1801283E5,2.748958E5,1.0712956E5,2.25908E5,8.252E4,6.0383E4,3.98884E5,1.92286E5,3.3532E5,1.39204E5,7.94E3,1.7E4,5.698E3,3.424E3,1.7164E4,1.6524E4,1.2949E4,7.291E3,1.4813E4,2.2967E4,4.376125E4,3.7421125E4,1.19924055E5,2.3263438E4,6.616575E4,1.5660965E4,1.7939062E4,1.3203703E4,6.90675E4,4.4261875E4,1.1556E4,2.06245E4,1.652875E4,2.19635E4,7.1226E4,2.6578E4,5.5553E4,1.10897E5,2.5024E4,5.7134E4,7.784E4,2.8575E4,0E0,0E0,0E0,0E0,0E0,0E0,0E0,0E0,0E0,0E0,0E0,0E0,0E0,0E0,0E0,0E0,0E0,0E0,0E0,0E0,0E0,0E0,0E0,0E0,0E0,0E0,0E0,0E0,0E0,0E0,0E0,0E0,0E0,0E0,0E0,0E0,0E0,0E0,0E0,0E0,0E0,0E0,0E0,0E0,0E0,0E0,0E0,0E0,0E0,0E0,0E0,0E0,0E0,0E0,0E0,0E0,0E0,0E0,0E0,0E0,0E0,0E0,0E0,0E0],"parents":[2147483647,0,0,1,1,2,2,3,3,4,4,5,5,6,6,7,7,8,8,9,9,10,10,11,11,12,12,13,13,14,14,15,15,16,16,17,17,18,18,19,19,20,20,21,21,22,22,23,23,24,24,25,25,26,26,27,27,28,28,29,29,30,30,31,31,32,32,33,33,34,34,35,35,36,36,37,37,38,38,39,39,40,40,41,41,42,42,43,43,44,44,45,45,46,46,47,47,48,48,49,49,50,50,51,51,52,52,53,53,54,54,55,55,56,56,57,57,58,58,59,59,60,60,61,61,62,62],"right_children":[2,4,6,8,10,12,14,16,18,20,22,24,26,28,30,32,34,36,38,40,42,44,46,48,50,52,54,56,58,60,62,64,66,68,70,72,74,76,78,80,82,84,86,88,90,92,94,96,98,100,102,104,106,108,110,112,114,116,118,120,122,124,126,-1,-1,-1,-1,-1,-1,-1,-1,-1,-1,-1,-1,-1,-1,-1,-1,-1,-1,-1,-1,-1,-1,-1,-1,-1,-1,-1,-1,-1,-1,-1,-1,-1,-1,-1,-1,-1,-1,-1,-1,-1,-1,-1,-1,-1,-1,-1,-1,-1,-1,-1,-1,-1,-1,-1,-1,-1,-1,-1,-1,-1,-1,-1,-1],"split_conditions":[7.019E1,3.979E1,9.473E1,2.243E1,5.592E1,8.577E1,1.1171E2,1.451E1,3.368E1,4.681E1,2E0,7.599E1,2E0,2E0,2E0,9.03E0,1.873E1,2.813E1,3.697E1,4.319E1,5.207E1,6.391E1,6.391E1,2E0,2E0,9.094E1,9.094E1,1.0392E2,1.0497E2,1.1619E2,3E0,7.75E0,1.174E1,1.648E1,1.928E1,2.623E1,3.198E1,3.487E1,2E0,3E0,2E0,2E0,2E0,1E0,6.689E1,3E0,3E0,7.284E1,3E0,8.26E1,7.997E1,1E0,1E0,3E0,3E0,9.863E1,1E0,3E0,3E0,1E0,1.177E2,1.177E2,1.177E2,-3.8950894E0,-3.7396438E0,-3.621085E0,-3.4445572E0,-3.315944E0,-3.1997104E0,-3.0770805E0,-2.9473617E0,-2.6948578E0,-2.5403326E0,-2.347645E0,-2.2048874E0,-2.1101549E0,-1.9476284E0,-1.6642872E0,-1.7958593E0,-1.4652247E0,-1.6638701E0,-1.1587274E0,-1.3725332E0,-9.1358614E-1,-1.1603312E0,-6.165692E-1,-8.7232715E-1,7.3250405E-2,-1.7439447E-1,2.0493226E-1,4.158938E-1,-3.3656105E-1,-5.5341E-1,1.131671E-1,-8.000334E-2,6.349664E-1,8.4790957E-1,4.6200648E-1,2.6395628E-1,1.1530546E0,1.473078E0,6.798379E-1,9.631772E-1,1.7736018E0,1.9566545E0,2.0770957E0,2.3266566E0,1.4322174E0,1.1840264E0,1.8158978E0,1.4979101E0,2.5033867E0,2.7947242E0,3.0933363E0,3.3006897E0,2.2081769E0,1.9033012E0,2.7876863E0,2.2626884E0,3.5142362E0,3.751701E0,3.9877915E0,4.358017E0,3.2672856E0,3.8810246E0,2.8060822E0,3.2217088E0],"split_indices":[0,0,0,0,0,0,0,0,0,0,1,0,1,1,1,0,0,0,0,0,0,0,0,1,1,0,0,0,0,0,1,0,0,0,0,0,0,0,1,1,1,1,1,1,0,1,1,0,1,0,0,4,4,1,1,0,4,1,1,4,0,0,0,0,0,0,0,0,0,0,0,0,0,0,0,0,0,0,0,0,0,0,0,0,0,0,0,0,0,0,0,0,0,0,0,0,0,0,0,0,0,0,0,0,0,0,0,0,0,0,0,0,0,0,0,0,0,0,0,0,0,0,0,0,0,0,0],"split_type":[0,0,0,0,0,0,0,0,0,0,0,0,0,0,0,0,0,0,0,0,0,0,0,0,0,0,0,0,0,0,0,0,0,0,0,0,0,0,0,0,0,0,0,0,0,0,0,0,0,0,0,0,0,0,0,0,0,0,0,0,0,0,0,0,0,0,0,0,0,0,0,0,0,0,0,0,0,0,0,0,0,0,0,0,0,0,0,0,0,0,0,0,0,0,0,0,0,0,0,0,0,0,0,0,0,0,0,0,0,0,0,0,0,0,0,0,0,0,0,0,0,0,0,0,0,0,0],"sum_hessian":[7.5E5,4.56824E5,2.93176E5,1.90517E5,2.66307E5,1.31913E5,1.61263E5,7.9001E4,1.11516E5,9.3786E4,1.72521E5,8.1995E4,4.9918E4,1.02598E5,5.8665E4,4.0968E4,3.8033E4,7.3276E4,3.824E4,4.102E4,5.2766E4,9.9435E4,7.3086E4,2.9368E4,5.2627E4,3.0224E4,1.9694E4,6.2213E4,4.0385E4,3.8049E4,2.0616E4,1.7547E4,2.3421E4,2.0359E4,1.7674E4,3.237E4,4.0906E4,2.0614E4,1.7626E4,2.0472E4,2.0548E4,2.9271E4,2.3495E4,7.8407E4,2.1028E4,5.63E4,1.6786E4,1.5873E4,1.3495E4,2.9913E4,2.2714E4,1.5647E4,1.4577E4,1.0866E4,8.828E3,3.399E4,2.8223E4,2.4097E4,1.6288E4,2.0653E4,1.7396E4,1.1007E4,9.609E3,1.1704E4,5.843E3,1.1757E4,1.1664E4,8.83E3,1.1529E4,3.103E3,1.4571E4,2.0641E4,1.1729E4,2.9169E4,1.1737E4,8.888E3,1.1726E4,9.455E3,8.171E3,1.5408E4,5.064E3,1.1548E4,9E3,1.6457E4,1.2814E4,1.3596E4,9.899E3,4.1137E4,3.727E4,9.746E3,1.1282E4,2.8319E4,2.7981E4,8.406E3,8.38E3,7.854E3,8.019E3,6.495E3,7E3,1.9595E4,1.0318E4,9.47E3,1.3244E4,1.0206E4,5.441E3,9.227E3,5.35E3,5.682E3,5.184E3,4.679E3,4.149E3,1.6111E4,1.7879E4,1.8369E4,9.854E3,1.2291E4,1.1806E4,7.49E3,8.798E3,1.3529E4,7.124E3,7.739E3,9.657E3,8.188E3,2.819E3,7.398E3,2.211E3],"tree_param":{"num_deleted":"0","num_feature":"5","num_nodes":"127","size_leaf_vector":"1"}},{"base_weights":[3.8727998E-5,-1.2724656E1,1.982751E1,-2.459684E1,-4.231192E0,1.1120415E1,2.6949795E1,-3.0437416E1,-2.0178865E1,-9.948151E0,-1.123295E0,7.136479E0,1.4935161E1,2.342224E1,3.2240574E1,-3.299691E1,-2.7884033E1,-2.1937891E1,-1.6947777E1,-1.2449205E1,-8.003645E0,2.8995717E-1,-3.0460312E0,5.0984244E0,8.8386545E0,1.6775612E1,1.215504E1,2.5758856E1,1.9854528E1,3.435575E1,2.8345348E1,-3.4592327E1,-3.1800201E1,-2.9252865E1,-2.653764E1,-2.346122E1,-2.064339E1,-1.8366693E1,-1.5726398E1,-1.3827227E1,-1.1420381E1,-9.194831E0,-6.5192914E0,-3.0477047E-1,3.2915347E0,-3.9990995E0,1.5059353E-1,6.683416E0,3.2337797E0,1.0377552E1,6.900647E0,1.465211E1,1.899118E1,1.0601003E1,1.4768419E1,2.3372877E1,2.778754E1,1.8530201E1,2.2100727E1,3.194015E1,3.774245E1,3.0595917E1,2.5821478E1,-3.3971272E0,-3.5425084E0,-3.259007E0,-3.100131E0,-2.970111E0,-2.863423E0,-2.6938546E0,-2.5519075E0,-2.4055011E0,-2.2746916E0,-1.9633588E0,-2.1020048E0,-1.7001971E0,-1.8824717E0,-1.5166577E0,-1.6364206E0,-1.3375314E0,-1.5165411E0,-1.0596257E0,-1.2480725E0,-8.2223314E-1,-1.0443071E0,-5.549168E-1,-7.851034E-1,7.224217E-2,-1.4397047E-1,2.3039155E-1,3.7430814E-1,-6.241855E-1,-3.5683367E-1,-8.27712E-2,1.0168121E-1,5.714777E-1,7.6312935E-1,4.1581306E-1,2.3756428E-1,9.833976E-1,1.1362352E0,7.9762167E-1,5.776136E-1,1.3257843E0,1.6035706E0,1.8143965E0,2.0402057E0,9.1396064E-1,1.1678609E0,1.6045102E0,1.3321432E0,2.2530637E0,2.4631763E0,2.598623E0,2.8491228E0,1.9873772E0,1.7129873E0,2.4637103E0,1.995615E0,3.0708966E0,3.3330483E0,3.5890636E0,3.9222603E0,2.9433734E0,3.5609689E0,2.4140835E0,2.7469022E0],"categories":[],"categories_nodes":[],"categories_segments":[],"categories_sizes":[],"default_left":[0,0,0,0,0,0,0,0,0,0,0,0,0,0,0,0,0,0,0,0,0,0,0,0,0,0,0,0,0,0,0,0,0,0,0,0,0,0,0,0,0,0,0,0,0,0,0,0,0,0,0,0,0,0,0,0,0,0,0,0,0,0,0,0,0,0,0,0,0,0,0,0,0,0,0,0,0,0,0,0,0,0,0,0,0,0,0,0,0,0,0,0,0,0,0,0,0,0,0,0,0,0,0,0,0,0,0,0,0,0,0,0,0,0,0,0,0,0,0,0,0,0,0,0,0,0,0],"id":2,"left_children":[1,3,5,7,9,11,13,15,17,19,21,23,25,27,29,31,33,35,37,39,41,43,45,47,49,51,53,55,57,59,61,63,65,67,69,71,73,75,77,79,81,83,85,87,89,91,93,95,97,99,101,103,105,107,109,111,113,115,117,119,121,123,125,-1,-1,-1,-1,-1,-1,-1,-1,-1,-1,-1,-1,-1,-1,-1,-1,-1,-1,-1,-1,-1,-1,-1,-1,-1,-1,-1,-1,-1,-1,-1,-1,-1,-1,-1,-1,-1,-1,-1,-1,-1,-1,-1,-1,-1,-1,-1,-1,-1,-1,-1,-1,-1,-1,-1,-1,-1,-1,-1,-1,-1,-1,-1,-1],"loss_changes":[1.8922438E8,4.606429E7,1.8180896E7,4.915416E6,4.731674E6,2.004683E6,3.008992E6,5.35288E5,6.1614E5,4.56016E5,4.687968E5,2.238105E5,3.44594E5,8.06104E5,5.30508E5,7.712E4,7.4932E4,1.38008E5,6.5984E4,5.7999E4,9.323975E4,1.7750631E5,2.2266756E5,8.677681E4,1.0478925E5,1.90467E5,1.0886875E5,2.82332E5,1.13509E5,3.40764E5,1.28188E5,7.874E3,1.3768E4,4.794E3,7.775E3,1.3134E4,1.4031E4,1.0734E4,7.092E3,1.03985E4,2.03965E4,3.544775E4,3.0312312E4,9.6753914E4,7.3246875E3,5.4369938E4,1.4226588E4,1.4531125E4,1.0695422E4,1.037825E4,1.8779688E4,3.97315E4,2.3343E4,2.6409875E4,1.82745E4,2.7937E4,3.9306E4,4.49985E4,7.6743E4,4.0752E4,4.6278E4,6.8864E4,2.89915E4,0E0,0E0,0E0,0E0,0E0,0E0,0E0,0E0,0E0,0E0,0E0,0E0,0E0,0E0,0E0,0E0,0E0,0E0,0E0,0E0,0E0,0E0,0E0,0E0,0E0,0E0,0E0,0E0,0E0,0E0,0E0,0E0,0E0,0E0,0E0,0E0,0E0,0E0,0E0,0E0,0E0,0E0,0E0,0E0,0E0,0E0,0E0,0E0,0E0,0E0,0E0,0E0,0E0,0E0,0E0,0E0,0E0,0E0,0E0,0E0,0E0,0E0,0E0,0E0],"parents":[2147483647,0,0,1,1,2,2,3,3,4,4,5,5,6,6,7,7,8,8,9,9,10,10,11,11,12,12,13,13,14,14,15,15,16,16,17,17,18,18,19,19,20,20,21,21,22,22,23,23,24,24,25,25,26,26,27,27,28,28,29,29,30,30,31,31,32,32,33,33,34,34,35,35,36,36,37,37,38,38,39,39,40,40,41,41,42,42,43,43,44,44,45,45,46,46,47,47,48,48,49,49,50,50,51,51,52,52,53,53,54,54,55,55,56,56,57,57,58,58,59,59,60,60,61,61,62,62],"right_children":[2,4,6,8,10,12,14,16,18,20,22,24,26,28,30,32,34,36,38,40,42,44,46,48,50,52,54,56,58,60,62,64,66,68,70,72,74,76,78,80,82,84,86,88,90,92,94,96,98,100,102,104,106,108,110,112,114,116,118,120,122,124,126,-1,-1,-1,-1,-1,-1,-1,-1,-1,-1,-1,-1,-1,-1,-1,-1,-1,-1,-1,-1,-1,-1,-1,-1,-1,-1,-1,-1,-1,-1,-1,-1,-1,-1,-1,-1,-1,-1,-1,-1,-1,-1,-1,-1,-1,-1,-1,-1,-1,-1,-1,-1,-1,-1,-1,-1,-1,-1,-1,-1,-1,-1,-1,-1],"split_conditions":[7.019E1,3.979E1,9.473E1,2.308E1,5.592E1,8.26E1,1.109E2,1.451E1,3.368E1,4.681E1,2E0,7.599E1,2E0,2E0,2E0,9.03E0,1.873E1,2.865E1,3.638E1,4.278E1,5.207E1,6.52E1,6.391E1,2E0,2E0,8.905E1,9.029E1,1.0208E2,1.0497E2,1.1619E2,3E0,1E0,1.174E1,1.689E1,2.184E1,2.623E1,1E0,1E0,2E0,3E0,2E0,2E0,2E0,1E0,6.689E1,5.979E1,6.689E1,7.284E1,3E0,8.059E1,3E0,8.577E1,9.281E1,8.577E1,3E0,9.863E1,1.044E2,3E0,3E0,1.1385E2,1.177E2,1.1817E2,1.1498E2,-3.3971272E0,-3.5425084E0,-3.259007E0,-3.100131E0,-2.970111E0,-2.863423E0,-2.6938546E0,-2.5519075E0,-2.4055011E0,-2.2746916E0,-1.9633588E0,-2.1020048E0,-1.7001971E0,-1.8824717E0,-1.5166577E0,-1.6364206E0,-1.3375314E0,-1.5165411E0,-1.0596257E0,-1.2480725E0,-8.2223314E-1,-1.0443071E0,-5.549168E-1,-7.851034E-1,7.224217E-2,-1.4397047E-1,2.3039155E-1,3.7430814E-1,-6.241855E-1,-3.5683367E-1,-8.27712E-2,1.0168121E-1,5.714777E-1,7.6312935E-1,4.1581306E-1,2.3756428E-1,9.833976E-1,1.1362352E0,7.9762167E-1,5.776136E-1,1.3257843E0,1.6035706E0,1.8143965E0,2.0402057E0,9.1396064E-1,1.1678609E0,1.6045102E0,1.3321432E0,2.2530637E0,2.4631763E0,2.598623E0,2.8491228E0,1.9873772E0,1.7129873E0,2.4637103E0,1.995615E0,3.0708966E0,3.3330483E0,3.5890636E0,3.9222603E0,2.9433734E0,3.5609689E0,2.4140835E0,2.7469022E0],"split_indices":[0,0,0,0,0,0,0,0,0,0,1,0,1,1,1,0,0,0,0,0,0,0,0,1,1,0,0,0,0,0,1,2,0,0,0,0,1,1,1,1,1,1,1,1,0,0,0,0,1,0,1,0,0,0,1,0,0,1,1,0,0,0,0,0,0,0,0,0,0,0,0,0,0,0,0,0,0,0,0,0,0,0,0,0,0,0,0,0,0,0,0,0,0,0,0,0,0,0,0,0,0,0,0,0,0,0,0,0,0,0,0,0,0,0,0,0,0,0,0,0,0,0,0,0,0,0,0],"split_type":[0,0,0,0,0,0,0,0,0,0,0,0,0,0,0,0,0,0,0,0,0,0,0,0,0,0,0,0,0,0,0,0,0,0,0,0,0,0,0,0,0,0,0,0,0,0,0,0,0,0,0,0,0,0,0,0,0,0,0,0,0,0,0,0,0,0,0,0,0,0,0,0,0,0,0,0,0,0,0,0,0,0,0,0,0,0,0,0,0,0,0,0,0,0,0,0,0,0,0,0,0,0,0,0,0,0,0,0,0,0,0,0,0,0,0,0,0,0,0,0,0,0,0,0,0,0,0],"sum_hessian":[7.5E5,4.56824E5,2.93176E5,1.90517E5,2.66307E5,1.31913E5,1.61263E5,8.2046E4,1.08471E5,9.3786E4,1.72521E5,6.4527E4,6.7386E4,9.6757E4,6.4506E4,4.0968E4,4.1078E4,7.0231E4,3.824E4,4.102E4,5.2766E4,9.9435E4,7.3086E4,2.9368E4,3.5159E4,4.0542E4,2.6844E4,5.8462E4,3.8295E4,4.18E4,2.2706E4,1.7547E4,2.3421E4,2.0359E4,2.0719E4,3.2256E4,3.7975E4,1.7683E4,2.0557E4,1.7529E4,2.3491E4,2.9271E4,2.3495E4,8.2992E4,1.6443E4,5.63E4,1.6786E4,1.5873E4,1.3495E4,1.9595E4,1.5564E4,2.0705E4,1.9837E4,1.6837E4,1.0007E4,2.6871E4,3.1591E4,2.4097E4,1.4198E4,2.4404E4,1.7396E4,1.1997E4,1.0709E4,1.0075E4,7.472E3,1.1757E4,1.1664E4,1.1778E4,8.581E3,1.4849E4,5.87E3,1.7596E4,1.466E4,1.0331E4,2.7644E4,4.453E3,1.323E4,1.0961E4,9.596E3,1.3112E4,4.417E3,1.3224E4,1.0267E4,1.6457E4,1.2814E4,1.3596E4,9.899E3,4.3564E4,3.9428E4,5.161E3,1.1282E4,9.069E3,4.7231E4,7.883E3,8.903E3,7.854E3,8.019E3,6.495E3,7E3,1.2633E4,6.962E3,7.952E3,7.612E3,1.0318E4,1.0387E4,1.2403E4,7.434E3,7.15E3,9.687E3,5.311E3,4.696E3,1.6111E4,1.076E4,8.885E3,2.2706E4,1.2291E4,1.1806E4,6.5E3,7.698E3,1.2955E4,1.1449E4,7.739E3,9.657E3,9.745E3,2.252E3,5.309E3,5.4E3],"tree_param":{"num_deleted":"0","num_feature":"5","num_nodes":"127","size_leaf_vector":"1"}},{"base_weights":[5.182417E-5,-1.1452296E1,1.7844969E1,-2.2280416E1,-3.9079056E0,9.509091E0,2.3876139E1,-2.756907E1,-1.8432472E1,-8.962354E0,-9.4059956E-1,6.422916E0,1.2910322E1,2.0735521E1,2.9016912E1,-3.023565E1,-2.5730341E1,-2.0272532E1,-1.6025236E1,-1.1476228E1,-7.20076E0,3.2739732E-1,-2.6729224E0,4.58865E0,7.954888E0,1.4560985E1,1.0452792E1,2.277945E1,1.759224E1,3.092051E1,2.5511326E1,-3.1593088E1,-2.9460358E1,-2.6743002E1,-2.4062109E1,-2.1626879E1,-1.9248396E1,-1.7217216E1,-1.448781E1,-1.2521144E1,-1.0436543E1,-8.355934E0,-5.7904663E0,-2.9724658E-1,2.612297E0,-3.4956608E0,2.7756083E-1,6.0151587E0,2.91045E0,9.339905E0,6.21067E0,1.1932189E1,1.5658503E1,8.225775E0,1.142452E1,2.0604431E1,2.500896E1,1.5826655E1,1.9297754E1,2.8746397E1,3.396864E1,2.7536865E1,2.3239813E1,-3.0992522E0,-3.2305095E0,-3.0207627E0,-2.9161074E0,-2.7290168E0,-2.5907218E0,-2.5001729E0,-2.386031E0,-2.284353E0,-2.1467888E0,-2.017471E0,-1.8936539E0,-1.612756E0,-1.7586895E0,-1.3936678E0,-1.511492E0,-1.1308459E0,-1.2950531E0,-9.723734E-1,-1.1341887E0,-7.4823385E-1,-9.486728E-1,-4.9082905E-1,-6.9683236E-1,6.696178E-2,-1.3664296E-1,1.3602598E-1,3.149558E-1,-2.5215057E-1,-4.4845372E-1,1.1737629E-1,-6.1512984E-2,5.4485613E-1,7.3708713E-1,2.0644012E-1,3.782675E-1,1.002737E0,8.6066085E-1,5.018057E-1,7.108864E-1,1.1560067E0,1.2626761E0,1.4677929E0,1.6902151E0,9.439843E-1,6.970039E-1,1.2508501E0,1.0224372E0,1.9825337E0,2.2168815E0,2.597444E0,2.3868814E0,1.695163E0,1.4580615E0,2.1367347E0,1.7507063E0,2.7638307E0,2.9997723E0,3.230204E0,3.5300748E0,2.5642872E0,3.0226572E0,2.2453325E0,2.625117E0],"categories":[],"categories_nodes":[],"categories_segments":[],"categories_sizes":[],"default_left":[0,0,0,0,0,0,0,0,0,0,0,0,0,0,0,0,0,0,0,0,0,0,0,0,0,0,0,0,0,0,0,0,0,0,0,0,0,0,0,0,0,0,0,0,0,0,0,0,0,0,0,0,0,0,0,0,0,0,0,0,0,0,0,0,0,0,0,0,0,0,0,0,0,0,0,0,0,0,0,0,0,0,0,0,0,0,0,0,0,0,0,0,0,0,0,0,0,0,0,0,0,0,0,0,0,0,0,0,0,0,0,0,0,0,0,0,0,0,0,0,0,0,0,0,0,0,0],"id":3,"left_children":[1,3,5,7,9,11,13,15,17,19,21,23,25,27,29,31,33,35,37,39,41,43,45,47,49,51,53,55,57,59,61,63,65,67,69,71,73,75,77,79,81,83,85,87,89,91,93,95,97,99,101,103,105,107,109,111,113,115,117,119,121,123,125,-1,-1,-1,-1,-1,-1,-1,-1,-1,-1,-1,-1,-1,-1,-1,-1,-1,-1,-1,-1,-1,-1,-1,-1,-1,-1,-1,-1,-1,-1,-1,-1,-1,-1,-1,-1,-1,-1,-1,-1,-1,-1,-1,-1,-1,-1,-1,-1,-1,-1,-1,-1,-1,-1,-1,-1,-1,-1,-1,-1,-1,-1,-1,-1],"loss_changes":[1.5327506E8,3.731866E7,1.473928E7,3.816992E6,4.038049E6,1.29181E6,2.745744E6,3.86584E5,4.80656E5,4.409575E5,3.7264188E5,1.8129025E5,2.37351E5,6.78024E5,4.2968E5,3.2996E4,7.836E4,8.4944E4,8.5969E4,4.44465E4,9.535525E4,1.3980122E5,1.7404134E5,7.029094E4,8.48805E4,1.008545E5,5.082175E4,3.09764E5,1.25E5,2.76036E5,1.03836E5,4.003E3,3.712E3,1.2596E4,2.756E3,4.634E3,9.744E3,1.03895E4,6.893E3,1.05075E4,1.3167E4,3.172825E4,2.7368375E4,7.952045E4,1.4141297E4,5.399525E4,1.250841E4,1.21533125E4,9.951492E3,9.792375E3,1.66375E4,2.52125E3,2.9877E4,1.0836281E4,2.117875E4,3.9042E4,3.4154E4,2.8422E4,7.8053E4,3.301E4,3.7484E4,6.0346E4,2.47765E4,0E0,0E0,0E0,0E0,0E0,0E0,0E0,0E0,0E0,0E0,0E0,0E0,0E0,0E0,0E0,0E0,0E0,0E0,0E0,0E0,0E0,0E0,0E0,0E0,0E0,0E0,0E0,0E0,0E0,0E0,0E0,0E0,0E0,0E0,0E0,0E0,0E0,0E0,0E0,0E0,0E0,0E0,0E0,0E0,0E0,0E0,0E0,0E0,0E0,0E0,0E0,0E0,0E0,0E0,0E0,0E0,0E0,0E0,0E0,0E0,0E0,0E0,0E0,0E0],"parents":[2147483647,0,0,1,1,2,2,3,3,4,4,5,5,6,6,7,7,8,8,9,9,10,10,11,11,12,12,13,13,14,14,15,15,16,16,17,17,18,18,19,19,20,20,21,21,22,22,23,23,24,24,25,25,26,26,27,27,28,28,29,29,30,30,31,31,32,32,33,33,34,34,35,35,36,36,37,37,38,38,39,39,40,40,41,41,42,42,43,43,44,44,45,45,46,46,47,47,48,48,49,49,50,50,51,51,52,52,53,53,54,54,55,55,56,56,57,57,58,58,59,59,60,60,61,61,62,62],"right_children":[2,4,6,8,10,12,14,16,18,20,22,24,26,28,30,32,34,36,38,40,42,44,46,48,50,52,54,56,58,60,62,64,66,68,70,72,74,76,78,80,82,84,86,88,90,92,94,96,98,100,102,104,106,108,110,112,114,116,118,120,122,124,126,-1,-1,-1,-1,-1,-1,-1,-1,-1,-1,-1,-1,-1,-1,-1,-1,-1,-1,-1,-1,-1,-1,-1,-1,-1,-1,-1,-1,-1,-1,-1,-1,-1,-1,-1,-1,-1,-1,-1,-1,-1,-1,-1,-1,-1,-1,-1,-1,-1,-1,-1,-1,-1,-1,-1,-1,-1,-1,-1,-1,-1,-1,-1,-1],"split_conditions":[7.019E1,3.944E1,9.335E1,2.243E1,5.645E1,8.26E1,1.109E2,1.25E1,3.198E1,4.621E1,2E0,7.599E1,2E0,2E0,2E0,7.75E0,1.873E1,2.715E1,3.597E1,4.278E1,5.207E1,6.391E1,6.425E1,2E0,2E0,8.577E1,8.577E1,1.0208E2,1.0208E2,1.1619E2,3E0,1E0,9.03E0,1.648E1,1.928E1,2.308E1,2.865E1,1E0,2E0,1E0,2E0,2E0,2E0,1E0,6.578E1,3E0,3E0,7.404E1,7.284E1,1E0,7.884E1,1E0,9.029E1,3E0,3E0,9.863E1,1E0,3E0,3E0,1.1385E2,1.177E2,1.1619E2,1.177E2,-3.0992522E0,-3.2305095E0,-3.0207627E0,-2.9161074E0,-2.7290168E0,-2.5907218E0,-2.5001729E0,-2.386031E0,-2.284353E0,-2.1467888E0,-2.017471E0,-1.8936539E0,-1.612756E0,-1.7586895E0,-1.3936678E0,-1.511492E0,-1.1308459E0,-1.2950531E0,-9.723734E-1,-1.1341887E0,-7.4823385E-1,-9.486728E-1,-4.9082905E-1,-6.9683236E-1,6.696178E-2,-1.3664296E-1,1.3602598E-1,3.149558E-1,-2.5215057E-1,-4.4845372E-1,1.1737629E-1,-6.1512984E-2,5.4485613E-1,7.3708713E-1,2.0644012E-1,3.782675E-1,1.002737E0,8.6066085E-1,5.018057E-1,7.108864E-1,1.1560067E0,1.2626761E0,1.4677929E0,1.6902151E0,9.439843E-1,6.970039E-1,1.2508501E0,1.0224372E0,1.9825337E0,2.2168815E0,2.597444E0,2.3868814E0,1.695163E0,1.4580615E0,2.1367347E0,1.7507063E0,2.7638307E0,2.9997723E0,3.230204E0,3.5300748E0,2.5642872E0,3.0226572E0,2.2453325E0,2.625117E0],"split_indices":[0,0,0,0,0,0,0,0,0,0,1,0,1,1,1,0,0,0,0,0,0,0,0,1,1,0,0,0,0,0,1,2,0,0,0,0,0,1,1,1,1,1,1,1,0,1,1,0,0,1,0,4,0,1,1,0,1,1,1,0,0,0,0,0,0,0,0,0,0,0,0,0,0,0,0,0,0,0,0,0,0,0,0,0,0,0,0,0,0,0,0,0,0,0,0,0,0,0,0,0,0,0,0,0,0,0,0,0,0,0,0,0,0,0,0,0,0,0,0,0,0,0,0,0,0,0,0],"split_type":[0,0,0,0,0,0,0,0,0,0,0,0,0,0,0,0,0,0,0,0,0,0,0,0,0,0,0,0,0,0,0,0,0,0,0,0,0,0,0,0,0,0,0,0,0,0,0,0,0,0,0,0,0,0,0,0,0,0,0,0,0,0,0,0,0,0,0,0,0,0,0,0,0,0,0,0,0,0,0,0,0,0,0,0,0,0,0,0,0,0,0,0,0,0,0,0,0,0,0,0,0,0,0,0,0,0,0,0,0,0,0,0,0,0,0,0,0,0,0,0,0,0,0,0,0,0,0],"sum_hessian":[7.5E5,4.56824E5,2.93176E5,1.87587E5,2.69237E5,1.23074E5,1.70102E5,7.9001E4,1.08586E5,9.9592E4,1.69645E5,6.4527E4,5.8547E4,1.05596E5,6.4506E4,3.2236E4,4.6765E4,6.1539E4,4.7047E4,4.1032E4,5.856E4,9.795E4,7.1695E4,2.9368E4,3.5159E4,3.502E4,2.3527E4,6.3984E4,4.1612E4,4.18E4,2.2706E4,1.1704E4,2.0532E4,2.9091E4,1.7674E4,2.6489E4,3.505E4,2.6495E4,2.0552E4,2.0459E4,2.0573E4,3.2189E4,2.6371E4,7.6922E4,2.1028E4,5.6062E4,1.5633E4,1.5873E4,1.3495E4,1.9595E4,1.5564E4,1.0318E4,2.4702E4,7.15E3,1.6377E4,3.2393E4,3.1591E4,2.0451E4,2.1161E4,2.4404E4,1.7396E4,1.1997E4,1.0709E4,6.373E3,5.331E3,5.843E3,1.4689E4,1.7562E4,1.1529E4,3.103E3,1.4571E4,3.045E3,2.3444E4,8.812E3,2.6238E4,6.723E3,1.9772E4,1.0951E4,9.601E3,5.357E3,1.5102E4,1.1517E4,9.056E3,1.8164E4,1.4025E4,1.5081E4,1.129E4,4.0394E4,3.6528E4,6.315E3,1.4713E4,2.8243E4,2.7819E4,7.801E3,7.832E3,1.1198E4,4.675E3,6.852E3,6.643E3,1.0107E4,9.488E3,6.689E3,8.875E3,6.73E3,3.588E3,1.3819E4,1.0883E4,3.632E3,3.518E3,8.6E3,7.777E3,2.1633E4,1.076E4,1.7094E4,1.4497E4,1.0741E4,9.71E3,9.811E3,1.135E4,1.2955E4,1.1449E4,7.739E3,9.657E3,7.046E3,4.951E3,8.498E3,2.211E3],"tree_param":{"num_deleted":"0","num_feature":"5","num_nodes":"127","size_leaf_vector":"1"}},{"base_weights":[5.8341953E-5,-1.0307165E1,1.6060654E1,-1.9799479E1,-3.3351972E0,8.998602E0,2.1837315E1,-2.4654877E1,-1.6223293E1,-7.839295E0,-8.465417E-1,5.7807007E0,1.2079846E1,1.918909E1,2.6468334E1,-2.6737059E1,-2.257767E1,-1.7779512E1,-1.3568141E1,-9.608217E0,-6.0678263E0,2.9466066E-1,-2.4056394E0,4.129848E0,7.1594863E0,1.3570557E1,9.828031E0,2.1050861E1,1.6320585E1,2.8230492E1,2.3214876E1,-2.8020674E1,-2.577422E1,-2.3522867E1,-2.131754E1,-1.9003845E1,-1.6739092E1,-1.4715707E1,-1.241662E1,-1.0849822E1,-8.643812E0,-6.9881663E0,-4.882675E0,-2.6752383E-1,2.3510885E0,-3.1818318E0,1.3341653E-1,5.413723E0,2.6194475E0,8.406009E0,5.5896807E0,1.1856203E1,1.5359238E1,8.535061E0,1.2002413E1,1.9439543E1,2.3227703E1,1.4993382E1,1.8283052E1,2.625672E1,3.0572163E1,2.498426E1,2.1185678E1,-2.8619947E0,-2.7417588E0,-2.6415482E0,-2.5125637E0,-2.4037077E0,-2.3002508E0,-2.165699E0,-2.0634716E0,-1.9502977E0,-1.8403462E0,-1.5860603E0,-1.7066811E0,-1.4067835E0,-1.5392218E0,-1.2091393E0,-1.3421792E0,-9.727384E-1,-1.1270226E0,-7.936515E-1,-9.608593E-1,-6.1868614E-1,-7.981457E-1,-4.3549624E-1,-6.758408E-1,6.026562E-2,-1.229791E-1,1.5373097E-1,3.0538762E-1,-2.2986989E-1,-4.0767327E-1,-7.1861394E-2,8.878274E-2,4.5985863E-1,6.211415E-1,3.4525183E-1,1.8460943E-1,7.9163355E-1,9.293289E-1,6.5567034E-1,4.5787367E-1,1.0739205E0,1.2964641E0,1.4608731E0,1.66657E0,9.5776576E-1,7.4240506E-1,1.3042982E0,1.0823042E0,1.8490849E0,2.0616624E0,2.2609308E0,2.438258E0,1.6072588E0,1.3868576E0,2.0369823E0,1.650441E0,2.5515184E0,2.7661173E0,2.9512708E0,3.2521012E0,2.3940663E0,2.9028986E0,2.0452888E0,2.362724E0],"categories":[],"categories_nodes":[],"categories_segments":[],"categories_sizes":[],"default_left":[0,0,0,0,0,0,0,0,0,0,0,0,0,0,0,0,0,0,0,0,0,0,0,0,0,0,0,0,0,0,0,0,0,0,0,0,0,0,0,0,0,0,0,0,0,0,0,0,0,0,0,0,0,0,0,0,0,0,0,0,0,0,0,0,0,0,0,0,0,0,0,0,0,0,0,0,0,0,0,0,0,0,0,0,0,0,0,0,0,0,0,0,0,0,0,0,0,0,0,0,0,0,0,0,0,0,0,0,0,0,0,0,0,0,0,0,0,0,0,0,0,0,0,0,0,0,0],"id":4,"left_children":[1,3,5,7,9,11,13,15,17,19,21,23,25,27,29,31,33,35,37,39,41,43,45,47,49,51,53,55,57,59,61,63,65,67,69,71,73,75,77,79,81,83,85,87,89,91,93,95,97,99,101,103,105,107,109,111,113,115,117,119,121,123,125,-1,-1,-1,-1,-1,-1,-1,-1,-1,-1,-1,-1,-1,-1,-1,-1,-1,-1,-1,-1,-1,-1,-1,-1,-1,-1,-1,-1,-1,-1,-1,-1,-1,-1,-1,-1,-1,-1,-1,-1,-1,-1,-1,-1,-1,-1,-1,-1,-1,-1,-1,-1,-1,-1,-1,-1,-1,-1,-1,-1,-1,-1,-1,-1],"loss_changes":[1.2415544E8,3.0232656E7,1.1959984E7,3.358576E6,2.9522475E6,1.307876E6,1.977232E6,3.54256E5,4.6007E5,2.93666E5,3.018427E5,1.4684725E5,2.26072E5,5.47588E5,3.3568E5,4.9912E4,4.8428E4,8.9144E4,5.42215E4,5.60635E4,5.1051875E4,1.13240984E5,1.4129862E5,5.6937188E4,6.8754E4,1.241405E5,7.536975E4,2.17772E5,1.04915E5,1.75062E5,7.3495E4,5.558E3,9.078E3,5.725E3,3.637E3,9.308E3,1.0662E4,8.8185E3,6.55775E3,9.5635E3,1.7939375E4,2.0932125E4,2.0238656E4,6.441188E4,1.2022086E4,4.3386875E4,1.0791003E4,1.0293156E4,8.688531E3,8.4405E3,1.5186406E4,2.54975E4,1.92075E4,1.9433E4,1.214075E4,3.9548E4,1.8344E4,2.90295E4,6.0123E4,2.0806E4,3.496E4,4.5771E4,1.671E4,0E0,0E0,0E0,0E0,0E0,0E0,0E0,0E0,0E0,0E0,0E0,0E0,0E0,0E0,0E0,0E0,0E0,0E0,0E0,0E0,0E0,0E0,0E0,0E0,0E0,0E0,0E0,0E0,0E0,0E0,0E0,0E0,0E0,0E0,0E0,0E0,0E0,0E0,0E0,0E0,0E0,0E0,0E0,0E0,0E0,0E0,0E0,0E0,0E0,0E0,0E0,0E0,0E0,0E0,0E0,0E0,0E0,0E0,0E0,0E0,0E0,0E0,0E0,0E0],"parents":[2147483647,0,0,1,1,2,2,3,3,4,4,5,5,6,6,7,7,8,8,9,9,10,10,11,11,12,12,13,13,14,14,15,15,16,16,17,17,18,18,19,19,20,20,21,21,22,22,23,23,24,24,25,25,26,26,27,27,28,28,29,29,30,30,31,31,32,32,33,33,34,34,35,35,36,36,37,37,38,38,39,39,40,40,41,41,42,42,43,43,44,44,45,45,46,46,47,47,48,48,49,49,50,50,51,51,52,52,53,53,54,54,55,55,56,56,57,57,58,58,59,59,60,60,61,61,62,62],"right_children":[2,4,6,8,10,12,14,16,18,20,22,24,26,28,30,32,34,36,38,40,42,44,46,48,50,52,54,56,58,60,62,64,66,68,70,72,74,76,78,80,82,84,86,88,90,92,94,96,98,100,102,104,106,108,110,112,114,116,118,120,122,124,126,-1,-1,-1,-1,-1,-1,-1,-1,-1,-1,-1,-1,-1,-1,-1,-1,-1,-1,-1,-1,-1,-1,-1,-1,-1,-1,-1,-1,-1,-1,-1,-1,-1,-1,-1,-1,-1,-1,-1,-1,-1,-1,-1,-1,-1,-1,-1,-1,-1,-1,-1,-1,-1,-1,-1,-1,-1,-1,-1,-1,-1,-1,-1,-1],"split_conditions":[7.019E1,4.026E1,9.473E1,2.308E1,5.645E1,8.26E1,1.1171E2,1.451E1,3.368E1,4.827E1,2E0,7.599E1,2E0,2E0,2E0,9.03E0,1.928E1,2.865E1,3.697E1,4.38E1,5.288E1,6.391E1,6.391E1,2E0,2E0,8.905E1,9.029E1,1.044E2,1.0497E2,1.1619E2,3E0,7.13E0,1.174E1,1.689E1,2.184E1,2.623E1,1E0,2E0,3E0,1E0,2E0,2E0,3E0,1E0,6.689E1,3E0,6.689E1,7.284E1,3E0,8.059E1,3E0,8.577E1,1E0,3E0,3E0,9.974E1,1E0,3E0,3E0,1E0,1E0,1.1817E2,1.177E2,-2.8619947E0,-2.7417588E0,-2.6415482E0,-2.5125637E0,-2.4037077E0,-2.3002508E0,-2.165699E0,-2.0634716E0,-1.9502977E0,-1.8403462E0,-1.5860603E0,-1.7066811E0,-1.4067835E0,-1.5392218E0,-1.2091393E0,-1.3421792E0,-9.727384E-1,-1.1270226E0,-7.936515E-1,-9.608593E-1,-6.1868614E-1,-7.981457E-1,-4.3549624E-1,-6.758408E-1,6.026562E-2,-1.229791E-1,1.5373097E-1,3.0538762E-1,-2.2986989E-1,-4.0767327E-1,-7.1861394E-2,8.878274E-2,4.5985863E-1,6.211415E-1,3.4525183E-1,1.8460943E-1,7.9163355E-1,9.293289E-1,6.5567034E-1,4.5787367E-1,1.0739205E0,1.2964641E0,1.4608731E0,1.66657E0,9.5776576E-1,7.4240506E-1,1.3042982E0,1.0823042E0,1.8490849E0,2.0616624E0,2.2609308E0,2.438258E0,1.6072588E0,1.3868576E0,2.0369823E0,1.650441E0,2.5515184E0,2.7661173E0,2.9512708E0,3.2521012E0,2.3940663E0,2.9028986E0,2.0452888E0,2.362724E0],"split_indices":[0,0,0,0,0,0,0,0,0,0,1,0,1,1,1,0,0,0,0,0,0,0,0,1,1,0,0,0,0,0,1,0,0,0,0,0,1,1,1,1,1,1,1,1,0,1,0,0,1,0,1,0,4,1,1,0,4,1,1,4,4,0,0,0,0,0,0,0,0,0,0,0,0,0,0,0,0,0,0,0,0,0,0,0,0,0,0,0,0,0,0,0,0,0,0,0,0,0,0,0,0,0,0,0,0,0,0,0,0,0,0,0,0,0,0,0,0,0,0,0,0,0,0,0,0,0,0],"split_type":[0,0,0,0,0,0,0,0,0,0,0,0,0,0,0,0,0,0,0,0,0,0,0,0,0,0,0,0,0,0,0,0,0,0,0,0,0,0,0,0,0,0,0,0,0,0,0,0,0,0,0,0,0,0,0,0,0,0,0,0,0,0,0,0,0,0,0,0,0,0,0,0,0,0,0,0,0,0,0,0,0,0,0,0,0,0,0,0,0,0,0,0,0,0,0,0,0,0,0,0,0,0,0,0,0,0,0,0,0,0,0,0,0,0,0,0,0,0,0,0,0,0,0,0,0,0,0],"sum_hessian":[7.5E5,4.56824E5,2.93176E5,1.93446E5,2.63378E5,1.31913E5,1.61263E5,8.2046E4,1.114E5,9.3733E4,1.69645E5,6.4527E4,6.7386E4,1.02598E5,5.8665E4,4.0968E4,4.1078E4,7.0231E4,4.1169E4,4.6898E4,4.6835E4,9.795E4,7.1695E4,2.9368E4,3.5159E4,4.0542E4,2.6844E4,6.2213E4,4.0385E4,3.8049E4,2.0616E4,1.7547E4,2.3421E4,2.3462E4,1.7616E4,3.2256E4,3.7975E4,2.0614E4,2.0555E4,2.0498E4,2.64E4,2.636E4,2.0475E4,7.6922E4,2.1028E4,5.4909E4,1.6786E4,1.5873E4,1.3495E4,1.9595E4,1.5564E4,2.0705E4,1.9837E4,1.6837E4,1.0007E4,3.5756E4,2.6457E4,2.4097E4,1.6288E4,2.0653E4,1.7396E4,1.1007E4,9.609E3,8.778E3,8.769E3,1.1757E4,1.1664E4,1.1778E4,1.1684E4,1.1746E4,5.87E3,1.7596E4,1.466E4,1.0331E4,2.7644E4,1.0541E4,1.0073E4,1.554E4,5.015E3,5.592E3,1.4906E4,1.5238E4,1.1162E4,1.4594E4,1.1766E4,1.5982E4,4.493E3,4.0394E4,3.6528E4,9.746E3,1.1282E4,2.7638E4,2.7271E4,7.883E3,8.903E3,7.854E3,8.019E3,6.495E3,7E3,1.2633E4,6.962E3,7.952E3,7.612E3,1.0318E4,1.0387E4,1.2607E4,7.23E3,8.682E3,8.155E3,5.311E3,4.696E3,1.9808E4,1.5948E4,1.7244E4,9.213E3,1.2291E4,1.1806E4,7.49E3,8.798E3,1.3529E4,7.124E3,1.128E4,6.116E3,8.755E3,2.252E3,7.398E3,2.211E3],"tree_param":{"num_deleted":"0","num_feature":"5","num_nodes":"127","size_leaf_vector":"1"}},{"base_weights":[6.813024E-5,-9.276534E0,1.44547615E1,-1.8049845E1,-3.1638114E0,7.5471897E0,1.9246943E1,-2.2468182E1,-1.5028683E1,-7.785567E0,-1.0321004E0,5.202699E0,1.02700205E1,1.671184E1,2.3514036E1,-2.4495445E1,-2.0980383E1,-1.6531176E1,-1.2972845E1,-9.580808E0,-6.5221233E0,-3.822252E0,-4.3983838E-1,3.7169175E0,6.4436183E0,1.1605955E1,8.29943E0,1.835053E1,1.4181937E1,2.5050522E1,2.0684507E1,-2.5602629E1,-2.3863094E1,-2.187834E1,-1.9953003E1,-1.7633953E1,-1.5608395E1,-1.40694475E1,-1.1870971E1,-1.0254221E1,-8.908957E0,-5.81915E0,-7.466038E0,-2.8797452E0,-5.0235243E0,1.3688673E0,-1.2372792E0,4.8724184E0,2.357542E0,7.565496E0,5.030784E0,9.665387E0,1.248407E1,6.5517435E0,9.115678E0,1.628334E1,1.9991323E1,1.2736946E1,1.5651317E1,2.3292486E1,2.7515303E1,2.2323734E1,1.884621E1,-2.5064163E0,-2.624152E0,-2.4111948E0,-2.3238251E0,-2.2466805E0,-2.1527374E0,-2.0569696E0,-1.9491476E0,-1.8356152E0,-1.732568E0,-1.5359199E0,-1.6413134E0,-1.378E0,-1.4903198E0,-1.1342705E0,-1.2465016E0,-9.623577E-1,-1.092078E0,-8.589749E-1,-9.937214E-1,-6.5765256E-1,-5.1190627E-1,-8.245598E-1,-6.621389E-1,-3.1061742E-1,-1.8950692E-1,-4.535256E-1,-5.489818E-1,1.031963E-1,3.025311E-1,-1.87447E-1,6.625793E-2,4.3957764E-1,6.012931E-1,1.5951154E-1,3.1435975E-1,8.1848043E-1,6.904991E-1,3.958648E-1,5.8383054E-1,9.330471E-1,1.0290816E0,1.1847162E0,1.3652256E0,7.538614E-1,5.531041E-1,9.9839413E-1,8.151373E-1,1.5536222E0,1.7575766E0,1.8650173E0,2.0818927E0,1.3648828E0,1.1729193E0,1.7339064E0,1.4191021E0,2.2334597E0,2.437433E0,2.6015682E0,2.8714263E0,2.0735385E0,2.4579546E0,1.7519194E0,2.014738E0],"categories":[],"categories_nodes":[],"categories_segments":[],"categories_sizes":[],"default_left":[0,0,0,0,0,0,0,0,0,0,0,0,0,0,0,0,0,0,0,0,0,0,0,0,0,0,0,0,0,0,0,0,0,0,0,0,0,0,0,0,0,0,0,0,0,0,0,0,0,0,0,0,0,0,0,0,0,0,0,0,0,0,0,0,0,0,0,0,0,0,0,0,0,0,0,0,0,0,0,0,0,0,0,0,0,0,0,0,0,0,0,0,0,0,0,0,0,0,0,0,0,0,0,0,0,0,0,0,0,0,0,0,0,0,0,0,0,0,0,0,0,0,0,0,0,0,0],"id":5,"left_children":[1,3,5,7,9,11,13,15,17,19,21,23,25,27,29,31,33,35,37,39,41,43,45,47,49,51,53,55,57,59,61,63,65,67,69,71,73,75,77,79,81,83,85,87,89,91,93,95,97,99,101,103,105,107,109,111,113,115,117,119,121,123,125,-1,-1,-1,-1,-1,-1,-1,-1,-1,-1,-1,-1,-1,-1,-1,-1,-1,-1,-1,-1,-1,-1,-1,-1,-1,-1,-1,-1,-1,-1,-1,-1,-1,-1,-1,-1,-1,-1,-1,-1,-1,-1,-1,-1,-1,-1,-1,-1,-1,-1,-1,-1,-1,-1,-1,-1,-1,-1,-1,-1,-1,-1,-1,-1],"loss_changes":[1.005681E8,2.4498924E7,9.704692E6,2.503684E6,2.6525912E6,7.66534E5,1.872036E6,2.29248E5,3.43924E5,1.926965E5,3.044799E5,1.189485E5,1.46167E5,4.49908E5,2.79924E5,2.1958E4,4.0104E4,6.5224E4,5.6682E4,1.579E4,3.305625E4,3.6513906E4,2.1922664E5,4.6120125E4,5.56915E4,5.62985E4,3.19675E4,2.23186E5,9.0442E4,1.80492E5,6.8004E4,3.3695E3,2.633E3,4.357E3,5.4345E3,6.208E3,6.777E3,5.4835E3,7.225E3,7.26125E3,5.6845E3,1.51281875E4,1.396325E4,4.0254375E3,3.20425E3,2.5951273E4,1.2769966E5,8.602906E3,8.0832734E3,7.95925E3,1.3452656E4,2.0655E3,1.67955E4,7.1615312E3,1.272975E4,2.78885E4,4.0383E4,1.9624E4,5.19105E4,2.4746E4,3.0533E4,4.2479E4,1.813975E4,0E0,0E0,0E0,0E0,0E0,0E0,0E0,0E0,0E0,0E0,0E0,0E0,0E0,0E0,0E0,0E0,0E0,0E0,0E0,0E0,0E0,0E0,0E0,0E0,0E0,0E0,0E0,0E0,0E0,0E0,0E0,0E0,0E0,0E0,0E0,0E0,0E0,0E0,0E0,0E0,0E0,0E0,0E0,0E0,0E0,0E0,0E0,0E0,0E0,0E0,0E0,0E0,0E0,0E0,0E0,0E0,0E0,0E0,0E0,0E0,0E0,0E0,0E0,0E0],"parents":[2147483647,0,0,1,1,2,2,3,3,4,4,5,5,6,6,7,7,8,8,9,9,10,10,11,11,12,12,13,13,14,14,15,15,16,16,17,17,18,18,19,19,20,20,21,21,22,22,23,23,24,24,25,25,26,26,27,27,28,28,29,29,30,30,31,31,32,32,33,33,34,34,35,35,36,36,37,37,38,38,39,39,40,40,41,41,42,42,43,43,44,44,45,45,46,46,47,47,48,48,49,49,50,50,51,51,52,52,53,53,54,54,55,55,56,56,57,57,58,58,59,59,60,60,61,61,62,62],"right_children":[2,4,6,8,10,12,14,16,18,20,22,24,26,28,30,32,34,36,38,40,42,44,46,48,50,52,54,56,58,60,62,64,66,68,70,72,74,76,78,80,82,84,86,88,90,92,94,96,98,100,102,104,106,108,110,112,114,116,118,120,122,124,126,-1,-1,-1,-1,-1,-1,-1,-1,-1,-1,-1,-1,-1,-1,-1,-1,-1,-1,-1,-1,-1,-1,-1,-1,-1,-1,-1,-1,-1,-1,-1,-1,-1,-1,-1,-1,-1,-1,-1,-1,-1,-1,-1,-1,-1,-1,-1,-1,-1,-1,-1,-1,-1,-1,-1,-1,-1,-1,-1,-1,-1,-1,-1,-1],"split_conditions":[7.019E1,3.944E1,9.281E1,2.184E1,5.383E1,8.26E1,1.109E2,1.25E1,3.198E1,4.506E1,5.979E1,7.599E1,2E0,2E0,2E0,7.75E0,1.746E1,2.715E1,3.547E1,4.234E1,2E0,2E0,1E0,2E0,2E0,8.577E1,8.577E1,1.003E2,1.0208E2,1.1619E2,3E0,1E0,1.085E1,1.451E1,1.928E1,2.352E1,3E0,3E0,2E0,2E0,3E0,4.929E1,4.978E1,5.869E1,3E0,6.578E1,6.391E1,7.404E1,7.284E1,1E0,7.884E1,1E0,1E0,3E0,3E0,1E0,1.044E2,3E0,3E0,1.1385E2,1.177E2,1.1619E2,1.1498E2,-2.5064163E0,-2.624152E0,-2.4111948E0,-2.3238251E0,-2.2466805E0,-2.1527374E0,-2.0569696E0,-1.9491476E0,-1.8356152E0,-1.732568E0,-1.5359199E0,-1.6413134E0,-1.378E0,-1.4903198E0,-1.1342705E0,-1.2465016E0,-9.623577E-1,-1.092078E0,-8.589749E-1,-9.937214E-1,-6.5765256E-1,-5.1190627E-1,-8.245598E-1,-6.621389E-1,-3.1061742E-1,-1.8950692E-1,-4.535256E-1,-5.489818E-1,1.031963E-1,3.025311E-1,-1.87447E-1,6.625793E-2,4.3957764E-1,6.012931E-1,1.5951154E-1,3.1435975E-1,8.1848043E-1,6.904991E-1,3.958648E-1,5.8383054E-1,9.330471E-1,1.0290816E0,1.1847162E0,1.3652256E0,7.538614E-1,5.531041E-1,9.9839413E-1,8.151373E-1,1.5536222E0,1.7575766E0,1.8650173E0,2.0818927E0,1.3648828E0,1.1729193E0,1.7339064E0,1.4191021E0,2.2334597E0,2.437433E0,2.6015682E0,2.8714263E0,2.0735385E0,2.4579546E0,1.7519194E0,2.014738E0],"split_indices":[0,0,0,0,0,0,0,0,0,0,0,0,1,1,1,0,0,0,0,0,1,1,1,1,1,0,0,0,0,0,1,2,0,0,0,0,1,1,1,1,1,0,0,0,1,0,0,0,0,1,0,4,4,1,1,4,0,1,1,0,0,0,0,0,0,0,0,0,0,0,0,0,0,0,0,0,0,0,0,0,0,0,0,0,0,0,0,0,0,0,0,0,0,0,0,0,0,0,0,0,0,0,0,0,0,0,0,0,0,0,0,0,0,0,0,0,0,0,0,0,0,0,0,0,0,0,0],"split_type":[0,0,0,0,0,0,0,0,0,0,0,0,0,0,0,0,0,0,0,0,0,0,0,0,0,0,0,0,0,0,0,0,0,0,0,0,0,0,0,0,0,0,0,0,0,0,0,0,0,0,0,0,0,0,0,0,0,0,0,0,0,0,0,0,0,0,0,0,0,0,0,0,0,0,0,0,0,0,0,0,0,0,0,0,0,0,0,0,0,0,0,0,0,0,0,0,0,0,0,0,0,0,0,0,0,0,0,0,0,0,0,0,0,0,0,0,0,0,0,0,0,0,0,0,0,0,0],"sum_hessian":[7.5E5,4.56824E5,2.93176E5,1.87587E5,2.69237E5,1.20085E5,1.73091E5,7.6176E4,1.11411E5,8.4983E4,1.84254E5,6.4527E4,5.5558E4,1.08585E5,6.4506E4,3.2236E4,4.394E4,6.4364E4,4.7047E4,3.5101E4,4.9882E4,3.2262E4,1.51992E5,2.9368E4,3.5159E4,3.3108E4,2.245E4,6.5896E4,4.2689E4,4.18E4,2.2706E4,1.1704E4,2.0532E4,2.3436E4,2.0504E4,2.9314E4,3.505E4,2.3574E4,2.3473E4,1.7523E4,1.7578E4,2.8594E4,2.1288E4,1.808E4,1.4182E4,4.6507E4,1.05485E5,1.5873E4,1.3495E4,1.9595E4,1.5564E4,1.0318E4,2.279E4,7.15E3,1.53E4,2.9164E4,3.6732E4,2.1528E4,2.1161E4,2.4404E4,1.7396E4,1.1997E4,1.0709E4,6.373E3,5.331E3,1.4657E4,5.875E3,8.732E3,1.4704E4,8.758E3,1.1746E4,8.752E3,2.0562E4,2.6778E4,8.272E3,1.7512E4,6.062E3,1.2435E4,1.1038E4,9.012E3,8.511E3,1.3421E4,4.157E3,1.3731E4,1.4863E4,1.1066E4,1.0222E4,1.4698E4,3.382E3,6.933E3,7.249E3,3.8648E4,7.859E3,7.8992E4,2.6493E4,1.1198E4,4.675E3,6.852E3,6.643E3,1.0107E4,9.488E3,6.689E3,8.875E3,6.73E3,3.588E3,1.4756E4,8.034E3,3.632E3,3.518E3,8.046E3,7.254E3,1.8489E4,1.0675E4,1.4026E4,2.2706E4,1.1295E4,1.0233E4,9.811E3,1.135E4,1.2955E4,1.1449E4,7.739E3,9.657E3,7.046E3,4.951E3,5.309E3,5.4E3],"tree_param":{"num_deleted":"0","num_feature":"5","num_nodes":"127","size_leaf_vector":"1"}},{"base_weights":[6.76129E-5,-8.280635E0,1.3116955E1,-1.6245022E1,-2.7913022E0,7.7257013E0,1.7985725E1,-2.0221603E1,-1.3525923E1,-6.2080164E0,-4.2517298E-1,5.4025764E0,1.0856172E1,1.5821618E1,2.1447302E1,-2.2046207E1,-1.8882536E1,-1.4878164E1,-1.1675673E1,-7.7134886E0,-4.351343E0,5.230571E-1,-1.7179443E0,3.9807034E0,6.9392257E0,1.2141766E1,8.879952E0,1.73096E1,1.3530207E1,2.2876184E1,1.8809168E1,-2.3042803E1,-2.1477015E1,-1.9500858E1,-1.7669935E1,-1.5786879E1,-1.396797E1,-1.2551128E1,-1.0546507E1,-8.937211E0,-6.7953463E0,-3.6228065E0,-5.281315E0,1.2520947E-1,2.4143002E0,-2.4047549E0,3.192098E-1,5.084206E0,2.6555421E0,7.550441E0,4.5796113E0,1.0854439E1,1.3389117E1,7.6793265E0,9.943264E0,1.601194E1,1.880181E1,1.2699685E1,1.5361281E1,2.1284887E1,2.4764086E1,2.0240068E1,1.7168152E1,-2.2558143E0,-2.361786E0,-2.1700919E0,-2.091482E0,-1.9904293E0,-1.8884639E0,-1.7290663E0,-1.8096823E0,-1.6520747E0,-1.5512269E0,-1.3570137E0,-1.4469442E0,-1.2064178E0,-1.308802E0,-1.097632E0,-9.982509E-1,-7.933194E-1,-9.305604E-1,-6.1931384E-1,-7.6013935E-1,-4.5390487E-1,-2.79558E-1,-6.1758465E-1,-4.7755104E-1,8.18774E-2,-6.484117E-2,1.9728027E-1,2.898439E-1,-1.5796743E-1,-3.248765E-1,1.0606438E-1,-4.0923994E-2,4.1148296E-1,5.835919E-1,1.299168E-1,3.1975672E-1,8.4454376E-1,7.0058775E-1,3.7102744E-1,4.773411E-1,1.0362176E0,1.1765562E0,1.2719411E0,1.4551605E0,8.429009E-1,6.8561596E-1,1.0797606E0,8.963298E-1,1.7030424E0,1.4938596E0,1.9538071E0,1.7972345E0,1.3800328E0,1.1622622E0,1.6905903E0,1.4022841E0,2.0616348E0,2.2551422E0,2.3810613E0,2.6518438E0,1.9212502E0,2.321684E0,1.3928069E0,1.7587477E0],"categories":[],"categories_nodes":[],"categories_segments":[],"categories_sizes":[],"default_left":[0,0,0,0,0,0,0,0,0,0,0,0,0,0,0,0,0,0,0,0,0,0,0,0,0,0,0,0,0,0,0,0,0,0,0,0,0,0,0,0,0,0,0,0,0,0,0,0,0,0,0,0,0,0,0,0,0,0,0,0,0,0,0,0,0,0,0,0,0,0,0,0,0,0,0,0,0,0,0,0,0,0,0,0,0,0,0,0,0,0,0,0,0,0,0,0,0,0,0,0,0,0,0,0,0,0,0,0,0,0,0,0,0,0,0,0,0,0,0,0,0,0,0,0,0,0,0],"id":6,"left_children":[1,3,5,7,9,11,13,15,17,19,21,23,25,27,29,31,33,35,37,39,41,43,45,47,49,51,53,55,57,59,61,63,65,67,69,71,73,75,77,79,81,83,85,87,89,91,93,95,97,99,101,103,105,107,109,111,113,115,117,119,121,123,125,-1,-1,-1,-1,-1,-1,-1,-1,-1,-1,-1,-1,-1,-1,-1,-1,-1,-1,-1,-1,-1,-1,-1,-1,-1,-1,-1,-1,-1,-1,-1,-1,-1,-1,-1,-1,-1,-1,-1,-1,-1,-1,-1,-1,-1,-1,-1,-1,-1,-1,-1,-1,-1,-1,-1,-1,-1,-1,-1,-1,-1,-1,-1,-1],"loss_changes":[8.1463E7,2.010015E7,7.618436E6,2.02806E6,2.2003252E6,1.0016085E6,1.142164E6,1.85704E5,2.7858E5,3.112425E5,1.9712775E5,1.7272075E5,1.48953E5,3.19746E5,2.20714E5,1.7792E4,3.2601E4,5.3016E4,4.6376E4,6.9033E4,3.3766688E4,6.9800055E4,9.520242E4,6.0041E4,5.4765875E4,5.69295E4,2.9449875E4,1.0987E5,5.60015E4,1.13784E5,4.80635E4,2.7295E3,2.13E3,6.857E3,2.092E3,6.2335E3,6.2205E3,6.769E3,4.87275E3,9.67525E3,1.7009625E4,2.1183094E4,9.880625E3,4.1124887E4,3.4405E3,3.5431344E4,9.266886E3,1.63038125E4,1.3715953E4,1.4649125E4,1.2997812E3,7.72575E3,1.38655E4,6.6483125E3,1.016925E4,3.30205E4,1.5807E4,2.99835E4,2.35915E4,1.7024E4,2.8468E4,3.32255E4,1.281175E4,0E0,0E0,0E0,0E0,0E0,0E0,0E0,0E0,0E0,0E0,0E0,0E0,0E0,0E0,0E0,0E0,0E0,0E0,0E0,0E0,0E0,0E0,0E0,0E0,0E0,0E0,0E0,0E0,0E0,0E0,0E0,0E0,0E0,0E0,0E0,0E0,0E0,0E0,0E0,0E0,0E0,0E0,0E0,0E0,0E0,0E0,0E0,0E0,0E0,0E0,0E0,0E0,0E0,0E0,0E0,0E0,0E0,0E0,0E0,0E0,0E0,0E0,0E0,0E0],"parents":[2147483647,0,0,1,1,2,2,3,3,4,4,5,5,6,6,7,7,8,8,9,9,10,10,11,11,12,12,13,13,14,14,15,15,16,16,17,17,18,18,19,19,20,20,21,21,22,22,23,23,24,24,25,25,26,26,27,27,28,28,29,29,30,30,31,31,32,32,33,33,34,34,35,35,36,36,37,37,38,38,39,39,40,40,41,41,42,42,43,43,44,44,45,45,46,46,47,47,48,48,49,49,50,50,51,51,52,52,53,53,54,54,55,55,56,56,57,57,58,58,59,59,60,60,61,61,62,62],"right_children":[2,4,6,8,10,12,14,16,18,20,22,24,26,28,30,32,34,36,38,40,42,44,46,48,50,52,54,56,58,60,62,64,66,68,70,72,74,76,78,80,82,84,86,88,90,92,94,96,98,100,102,104,106,108,110,112,114,116,118,120,122,124,126,-1,-1,-1,-1,-1,-1,-1,-1,-1,-1,-1,-1,-1,-1,-1,-1,-1,-1,-1,-1,-1,-1,-1,-1,-1,-1,-1,-1,-1,-1,-1,-1,-1,-1,-1,-1,-1,-1,-1,-1,-1,-1,-1,-1,-1,-1,-1,-1,-1,-1,-1,-1,-1,-1,-1,-1,-1,-1,-1,-1,-1,-1,-1,-1],"split_conditions":[7.079E1,3.944E1,9.603E1,2.184E1,5.869E1,8.577E1,1.1171E2,1.25E1,3.198E1,4.978E1,2E0,7.884E1,2E0,2E0,2E0,7.75E0,1.873E1,2.759E1,3.597E1,4.38E1,2E0,6.578E1,6.425E1,2E0,3E0,9.142E1,9.094E1,1.044E2,1.0693E2,1.1619E2,3E0,1E0,1.085E1,1.648E1,2E0,2.352E1,2E0,2E0,3.794E1,1E0,2E0,5.383E1,5.288E1,1E0,6.817E1,3E0,3E0,7.404E1,7.284E1,1E0,7.997E1,1E0,1E0,3E0,3E0,1E0,1E0,3E0,3E0,1E0,1E0,1.177E2,1.1258E2,-2.2558143E0,-2.361786E0,-2.1700919E0,-2.091482E0,-1.9904293E0,-1.8884639E0,-1.7290663E0,-1.8096823E0,-1.6520747E0,-1.5512269E0,-1.3570137E0,-1.4469442E0,-1.2064178E0,-1.308802E0,-1.097632E0,-9.982509E-1,-7.933194E-1,-9.305604E-1,-6.1931384E-1,-7.6013935E-1,-4.5390487E-1,-2.79558E-1,-6.1758465E-1,-4.7755104E-1,8.18774E-2,-6.484117E-2,1.9728027E-1,2.898439E-1,-1.5796743E-1,-3.248765E-1,1.0606438E-1,-4.0923994E-2,4.1148296E-1,5.835919E-1,1.299168E-1,3.1975672E-1,8.4454376E-1,7.0058775E-1,3.7102744E-1,4.773411E-1,1.0362176E0,1.1765562E0,1.2719411E0,1.4551605E0,8.429009E-1,6.8561596E-1,1.0797606E0,8.963298E-1,1.7030424E0,1.4938596E0,1.9538071E0,1.7972345E0,1.3800328E0,1.1622622E0,1.6905903E0,1.4022841E0,2.0616348E0,2.2551422E0,2.3810613E0,2.6518438E0,1.9212502E0,2.321684E0,1.3928069E0,1.7587477E0],"split_indices":[0,0,0,0,0,0,0,0,0,0,1,0,1,1,1,0,0,0,0,0,1,0,0,1,1,0,0,0,0,0,1,2,0,0,1,0,1,1,0,1,1,0,0,1,0,1,1,0,0,1,0,4,4,1,1,1,1,1,1,4,4,0,0,0,0,0,0,0,0,0,0,0,0,0,0,0,0,0,0,0,0,0,0,0,0,0,0,0,0,0,0,0,0,0,0,0,0,0,0,0,0,0,0,0,0,0,0,0,0,0,0,0,0,0,0,0,0,0,0,0,0,0,0,0,0,0,0],"split_type":[0,0,0,0,0,0,0,0,0,0,0,0,0,0,0,0,0,0,0,0,0,0,0,0,0,0,0,0,0,0,0,0,0,0,0,0,0,0,0,0,0,0,0,0,0,0,0,0,0,0,0,0,0,0,0,0,0,0,0,0,0,0,0,0,0,0,0,0,0,0,0,0,0,0,0,0,0,0,0,0,0,0,0,0,0,0,0,0,0,0,0,0,0,0,0,0,0,0,0,0,0,0,0,0,0,0,0,0,0,0,0,0,0,0,0,0,0,0,0,0,0,0,0,0,0,0,0],"sum_hessian":[7.5E5,4.59756E5,2.90244E5,1.87587E5,2.72169E5,1.37733E5,1.52511E5,7.6176E4,1.11411E5,1.11361E5,1.60808E5,7.9063E4,5.867E4,9.3846E4,5.8665E4,3.2236E4,4.394E4,6.4364E4,4.7047E4,6.1495E4,4.9866E4,9.2766E4,6.8042E4,4.1067E4,3.7996E4,3.5543E4,2.3127E4,5.6894E4,3.6952E4,3.8049E4,2.0616E4,1.1704E4,2.0532E4,2.9091E4,1.4849E4,3.22E4,3.2164E4,2.6495E4,2.0552E4,2.6357E4,3.5138E4,2.7964E4,2.1902E4,7.6644E4,1.6122E4,5.0886E4,1.7156E4,2.2406E4,1.8661E4,3.0177E4,7.819E3,1.7496E4,1.8047E4,1.0866E4,1.2261E4,3.0437E4,2.6457E4,2.5427E4,1.1525E4,2.0653E4,1.7396E4,1.1007E4,9.609E3,6.373E3,5.331E3,1.4657E4,5.875E3,1.7562E4,1.1529E4,7.885E3,6.964E3,8.752E3,2.3448E4,1.7951E4,1.4213E4,1.3906E4,1.2589E4,1.1653E4,8.899E3,7.081E3,1.9276E4,2.0117E4,1.5021E4,1.3266E4,1.4698E4,7.907E3,1.3995E4,4.0413E4,3.6231E4,8.435E3,7.687E3,2.5733E4,2.5153E4,8.502E3,8.654E3,9.789E3,1.2617E4,5.329E3,1.3332E4,1.141E4,1.8767E4,1.429E3,6.39E3,1.1367E4,6.129E3,1.1458E4,6.589E3,5.682E3,5.184E3,6.545E3,5.716E3,1.561E4,1.4827E4,1.4004E4,1.2453E4,1.257E4,1.2857E4,5.345E3,6.18E3,1.3529E4,7.124E3,1.128E4,6.116E3,8.188E3,2.819E3,1.105E3,8.504E3],"tree_param":{"num_deleted":"0","num_feature":"5","num_nodes":"127","size_leaf_vector":"1"}},{"base_weights":[7.396425E-5,-7.5146723E0,1.1709464E1,-1.4170756E1,-2.2281163E0,6.547551E0,1.5931838E1,-1.7976969E1,-1.1571982E1,-5.1614594E0,-4.3084723E-1,4.203045E0,8.792491E0,1.3927737E1,1.9177755E1,-1.9498798E1,-1.6458776E1,-1.27827835E1,-9.238221E0,-6.2691107E0,-3.6576595E0,4.3846574E-1,-1.6247478E0,3.004037E0,5.204451E0,9.881163E0,7.147983E0,1.5299713E1,1.1816536E1,2.045417E1,1.6836555E1,-2.0449255E1,-1.8785873E1,-1.7258682E1,-1.5671974E1,-1.3799853E1,-1.1968291E1,-1.006447E1,-8.622504E0,-7.33801E0,-5.6478477E0,-2.979524E0,-4.5426235E0,1.1268857E-1,2.1354043E0,-2.1642902E0,1.3150884E-1,3.9338934E0,1.9101166E0,5.749874E0,3.2301295E0,8.633518E0,1.11828985E1,6.274713E0,8.929222E0,1.3833657E1,1.647315E1,1.0654075E1,1.2964807E1,1.9521198E1,2.3367079E1,1.8186361E1,1.5309061E1,-2.0011773E0,-2.1036384E0,-1.9234806E0,-1.8331751E0,-1.7516279E0,-1.6903114E0,-1.5999489E0,-1.5226346E0,-1.4235787E0,-1.3362762E0,-1.1295972E0,-1.2214841E0,-9.508935E-1,-1.0703444E0,-8.273533E-1,-9.5833486E-1,-6.597367E-1,-7.6211536E-1,-5.0847733E-1,-6.392043E-1,-3.7773833E-1,-2.516043E-1,-4.0279213E-1,-5.044028E-1,7.3689744E-2,-5.835713E-2,1.6794945E-1,2.5183412E-1,-1.4217138E-1,-2.923903E-1,8.649272E-2,-5.990237E-2,3.4445497E-1,4.9178702E-1,2.653099E-1,1.2204547E-1,6.626397E-1,5.2415526E-1,2.475075E-1,3.810676E-1,7.923896E-1,9.337597E-1,1.0639565E0,1.2128713E0,5.306091E-1,6.911535E-1,9.75851E-1,7.9918736E-1,1.4651316E0,1.3003503E0,1.7222193E0,1.5610204E0,9.8234415E-1,1.1366128E0,1.4327109E0,1.1782782E0,1.879351E0,2.0874112E0,2.266183E0,2.465966E0,1.7416037E0,2.1349854E0,1.2689909E0,1.5828937E0],"categories":[],"categories_nodes":[],"categories_segments":[],"categories_sizes":[],"default_left":[0,0,0,0,0,0,0,0,0,0,0,0,0,0,0,0,0,0,0,0,0,0,0,0,0,0,0,0,0,0,0,0,0,0,0,0,0,0,0,0,0,0,0,0,0,0,0,0,0,0,0,0,0,0,0,0,0,0,0,0,0,0,0,0,0,0,0,0,0,0,0,0,0,0,0,0,0,0,0,0,0,0,0,0,0,0,0,0,0,0,0,0,0,0,0,0,0,0,0,0,0,0,0,0,0,0,0,0,0,0,0,0,0,0,0,0,0,0,0,0,0,0,0,0,0,0,0],"id":7,"left_children":[1,3,5,7,9,11,13,15,17,19,21,23,25,27,29,31,33,35,37,39,41,43,45,47,49,51,53,55,57,59,61,63,65,67,69,71,73,75,77,79,81,83,85,87,89,91,93,95,97,99,101,103,105,107,109,111,113,115,117,119,121,123,125,-1,-1,-1,-1,-1,-1,-1,-1,-1,-1,-1,-1,-1,-1,-1,-1,-1,-1,-1,-1,-1,-1,-1,-1,-1,-1,-1,-1,-1,-1,-1,-1,-1,-1,-1,-1,-1,-1,-1,-1,-1,-1,-1,-1,-1,-1,-1,-1,-1,-1,-1,-1,-1,-1,-1,-1,-1,-1,-1,-1,-1,-1,-1,-1],"loss_changes":[6.5994996E7,1.6074616E7,6.389844E6,2.00004E6,1.3422876E6,6.942635E5,1.04878E6,1.89244E5,3.39458E5,1.611005E5,1.6385703E5,7.7462625E4,1.20574E5,2.88624E5,1.83608E5,2.7376E4,2.5583E4,6.5378E4,2.079875E4,3.6948E4,2.4610188E4,5.0504637E4,6.303297E4,2.9866344E4,3.7843188E4,6.57495E4,4.1701375E4,1.03734E5,5.2291E4,1.07797E5,4.4515E4,4.086E3,4.4225E3,1.569E3,2.78E3,6.512E3,7.146E3,6.11875E3,7.81075E3,4.242625E3,1.4730625E4,8.581891E3,4.573125E3,3.3311234E4,2.5646094E3,2.8699688E4,8.376995E3,7.6264375E3,6.912199E3,1.2239375E4,3.3276797E3,1.0271375E4,1.006575E4,1.10769375E4,6.785125E3,1.80495E4,2.1423E4,1.1436E4,3.1642E4,2.9317E4,8.245E3,2.772075E4,1.3685E4,0E0,0E0,0E0,0E0,0E0,0E0,0E0,0E0,0E0,0E0,0E0,0E0,0E0,0E0,0E0,0E0,0E0,0E0,0E0,0E0,0E0,0E0,0E0,0E0,0E0,0E0,0E0,0E0,0E0,0E0,0E0,0E0,0E0,0E0,0E0,0E0,0E0,0E0,0E0,0E0,0E0,0E0,0E0,0E0,0E0,0E0,0E0,0E0,0E0,0E0,0E0,0E0,0E0,0E0,0E0,0E0,0E0,0E0,0E0,0E0,0E0,0E0,0E0,0E0],"parents":[2147483647,0,0,1,1,2,2,3,3,4,4,5,5,6,6,7,7,8,8,9,9,10,10,11,11,12,12,13,13,14,14,15,15,16,16,17,17,18,18,19,19,20,20,21,21,22,22,23,23,24,24,25,25,26,26,27,27,28,28,29,29,30,30,31,31,32,32,33,33,34,34,35,35,36,36,37,37,38,38,39,39,40,40,41,41,42,42,43,43,44,44,45,45,46,46,47,47,48,48,49,49,50,50,51,51,52,52,53,53,54,54,55,55,56,56,57,57,58,58,59,59,60,60,61,61,62,62],"right_children":[2,4,6,8,10,12,14,16,18,20,22,24,26,28,30,32,34,36,38,40,42,44,46,48,50,52,54,56,58,60,62,64,66,68,70,72,74,76,78,80,82,84,86,88,90,92,94,96,98,100,102,104,106,108,110,112,114,116,118,120,122,124,126,-1,-1,-1,-1,-1,-1,-1,-1,-1,-1,-1,-1,-1,-1,-1,-1,-1,-1,-1,-1,-1,-1,-1,-1,-1,-1,-1,-1,-1,-1,-1,-1,-1,-1,-1,-1,-1,-1,-1,-1,-1,-1,-1,-1,-1,-1,-1,-1,-1,-1,-1,-1,-1,-1,-1,-1,-1,-1,-1,-1,-1,-1,-1,-1],"split_conditions":[7.019E1,4.185E1,9.473E1,2.308E1,5.869E1,8.26E1,1.1132E2,1.451E1,3.487E1,5.155E1,2E0,7.599E1,2E0,2E0,2E0,9.03E0,1.873E1,2.909E1,3.794E1,4.506E1,2E0,6.578E1,6.425E1,2E0,3E0,8.905E1,9.094E1,1.0208E2,1.0301E2,1.177E2,3E0,1E0,1.174E1,1.689E1,2.125E1,2.623E1,1E0,2E0,3E0,1E0,2E0,5.383E1,3E0,1E0,6.773E1,3E0,3E0,1E0,3E0,1E0,7.884E1,8.577E1,1E0,8.577E1,3E0,1E0,1E0,9.814E1,3E0,1E0,1E0,1.1817E2,1.1258E2,-2.0011773E0,-2.1036384E0,-1.9234806E0,-1.8331751E0,-1.7516279E0,-1.6903114E0,-1.5999489E0,-1.5226346E0,-1.4235787E0,-1.3362762E0,-1.1295972E0,-1.2214841E0,-9.508935E-1,-1.0703444E0,-8.273533E-1,-9.5833486E-1,-6.597367E-1,-7.6211536E-1,-5.0847733E-1,-6.392043E-1,-3.7773833E-1,-2.516043E-1,-4.0279213E-1,-5.044028E-1,7.3689744E-2,-5.835713E-2,1.6794945E-1,2.5183412E-1,-1.4217138E-1,-2.923903E-1,8.649272E-2,-5.990237E-2,3.4445497E-1,4.9178702E-1,2.653099E-1,1.2204547E-1,6.626397E-1,5.2415526E-1,2.475075E-1,3.810676E-1,7.923896E-1,9.337597E-1,1.0639565E0,1.2128713E0,5.306091E-1,6.911535E-1,9.75851E-1,7.9918736E-1,1.4651316E0,1.3003503E0,1.7222193E0,1.5610204E0,9.8234415E-1,1.1366128E0,1.4327109E0,1.1782782E0,1.879351E0,2.0874112E0,2.266183E0,2.465966E0,1.7416037E0,2.1349854E0,1.2689909E0,1.5828937E0],"split_indices":[0,0,0,0,0,0,0,0,0,0,1,0,1,1,1,0,0,0,0,0,1,0,0,1,1,0,0,0,0,0,1,2,0,0,0,0,1,1,1,1,1,0,1,1,0,1,1,4,1,1,0,0,4,0,1,1,1,0,1,4,4,0,0,0,0,0,0,0,0,0,0,0,0,0,0,0,0,0,0,0,0,0,0,0,0,0,0,0,0,0,0,0,0,0,0,0,0,0,0,0,0,0,0,0,0,0,0,0,0,0,0,0,0,0,0,0,0,0,0,0,0,0,0,0,0,0,0],"split_type":[0,0,0,0,0,0,0,0,0,0,0,0,0,0,0,0,0,0,0,0,0,0,0,0,0,0,0,0,0,0,0,0,0,0,0,0,0,0,0,0,0,0,0,0,0,0,0,0,0,0,0,0,0,0,0,0,0,0,0,0,0,0,0,0,0,0,0,0,0,0,0,0,0,0,0,0,0,0,0,0,0,0,0,0,0,0,0,0,0,0,0,0,0,0,0,0,0,0,0,0,0,0,0,0,0,0,0,0,0,0,0,0,0,0,0,0,0,0,0,0,0,0,0,0,0,0,0],"sum_hessian":[7.5E5,4.56824E5,2.93176E5,2.02218E5,2.54606E5,1.31913E5,1.61263E5,8.2046E4,1.20172E5,9.673E4,1.57876E5,6.4527E4,6.7386E4,9.9707E4,6.1556E4,4.0968E4,4.1078E4,7.9119E4,4.1053E4,5.57E4,4.103E4,9.1357E4,6.6519E4,2.9368E4,3.5159E4,4.0542E4,2.6844E4,6.043E4,3.9277E4,3.9832E4,2.1724E4,1.7547E4,2.3421E4,2.0359E4,2.0719E4,3.5177E4,4.3942E4,1.7523E4,2.353E4,2.047E4,3.523E4,2.3232E4,1.7798E4,7.6644E4,1.4713E4,5.0886E4,1.5633E4,1.5873E4,1.3495E4,2.7547E4,7.612E3,2.0705E4,1.9837E4,1.8016E4,8.828E3,2.6871E4,3.3559E4,1.9523E4,1.9754E4,3.0175E4,9.657E3,1.1527E4,1.0197E4,1.0075E4,7.472E3,1.1757E4,1.1664E4,1.1778E4,8.581E3,1.1922E4,8.797E3,1.7596E4,1.7581E4,1.1803E4,3.2139E4,9.382E3,8.141E3,1.7268E4,6.262E3,5.668E3,1.4802E4,2.006E4,1.517E4,8.534E3,1.4698E4,8.787E3,9.011E3,4.0413E4,3.6231E4,6.719E3,7.994E3,2.5733E4,2.5153E4,7.801E3,7.832E3,1.0604E4,5.269E3,6.495E3,7E3,1.0107E4,1.744E4,3.311E3,4.301E3,1.0318E4,1.0387E4,1.2607E4,7.23E3,7.15E3,1.0866E4,4.679E3,4.149E3,1.3529E4,1.3342E4,1.7955E4,1.5604E4,9.018E3,1.0505E4,9.172E3,1.0582E4,1.9631E4,1.0544E4,6.26E3,3.397E3,9.275E3,2.252E3,1.693E3,8.504E3],"tree_param":{"num_deleted":"0","num_feature":"5","num_nodes":"127","size_leaf_vector":"1"}},{"base_weights":[7.841001E-5,-6.818294E0,1.0453949E1,-1.3246837E1,-2.4101942E0,5.4074316E0,1.4039355E1,-1.6380953E1,-1.1045727E1,-5.7464337E0,-7.927959E-1,3.3199997E0,7.135785E0,1.1745254E1,1.6577896E1,-1.765228E1,-1.5111532E1,-1.206419E1,-9.559309E0,-7.0513663E0,-4.751171E0,-2.7215672E0,-3.28454E-1,4.160657E0,2.3442285E0,8.072657E0,5.755579E0,1.2926171E1,9.927114E0,1.5450721E1,1.8958033E1,-1.8538094E1,-1.7099154E1,-1.5616807E1,-1.4318578E1,-1.2863447E1,-1.1395385E1,-1.0343899E1,-8.869797E0,-6.749971E0,-7.9445724E0,-4.225282E0,-5.457312E0,-2.051238E0,-3.584742E0,4.6852332E-1,-1.4305855E0,3.1016374E0,4.9322424E0,1.2402722E0,2.991784E0,6.7726793E0,9.057995E0,4.642626E0,6.62114E0,1.1655783E1,1.4002584E1,8.721436E0,1.0648752E1,1.6581547E1,1.3517174E1,1.9664833E1,1.5058019E1,-1.8134279E0,-1.904809E0,-1.7396799E0,-1.6597496E0,-1.5935789E0,-1.5290495E0,-1.3976629E0,-1.4703687E0,-1.2509335E0,-1.3251518E0,-1.0785536E0,-1.1616181E0,-9.75567E-1,-1.0546733E0,-8.583086E-1,-9.768651E-1,-7.141306E-1,-6.144205E-1,-8.4970945E-1,-7.3851794E-1,-4.7912136E-1,-3.702166E-1,-6.021895E-1,-4.8455843E-1,-2.4664429E-1,-1.6574287E-1,-3.8774472E-1,-2.960107E-1,1.0447611E-1,-1.78804E-2,-1.8617469E-1,6.628646E-4,3.7304997E-1,2.3963547E-1,4.4560194E-1,5.8897984E-1,1.8789093E-1,6.4723164E-2,3.6760828E-1,2.3302232E-1,6.550705E-1,7.684668E-1,8.5685855E-1,9.9557114E-1,5.460525E-1,3.7638077E-1,7.298588E-1,5.8688253E-1,1.0968755E0,1.2844576E0,1.4739356E0,1.3187474E0,9.420261E-1,7.9354113E-1,1.1654049E0,9.7191346E-1,1.5963751E0,1.7860634E0,1.4662873E0,1.2367375E0,1.8863907E0,2.1174018E0,1.4025899E0,1.5911622E0],"categories":[],"categories_nodes":[],"categories_segments":[],"categories_sizes":[],"default_left":[0,0,0,0,0,0,0,0,0,0,0,0,0,0,0,0,0,0,0,0,0,0,0,0,0,0,0,0,0,0,0,0,0,0,0,0,0,0,0,0,0,0,0,0,0,0,0,0,0,0,0,0,0,0,0,0,0,0,0,0,0,0,0,0,0,0,0,0,0,0,0,0,0,0,0,0,0,0,0,0,0,0,0,0,0,0,0,0,0,0,0,0,0,0,0,0,0,0,0,0,0,0,0,0,0,0,0,0,0,0,0,0,0,0,0,0,0,0,0,0,0,0,0,0,0,0,0],"id":8,"left_children":[1,3,5,7,9,11,13,15,17,19,21,23,25,27,29,31,33,35,37,39,41,43,45,47,49,51,53,55,57,59,61,63,65,67,69,71,73,75,77,79,81,83,85,87,89,91,93,95,97,99,101,103,105,107,109,111,113,115,117,119,121,123,125,-1,-1,-1,-1,-1,-1,-1,-1,-1,-1,-1,-1,-1,-1,-1,-1,-1,-1,-1,-1,-1,-1,-1,-1,-1,-1,-1,-1,-1,-1,-1,-1,-1,-1,-1,-1,-1,-1,-1,-1,-1,-1,-1,-1,-1,-1,-1,-1,-1,-1,-1,-1,-1,-1,-1,-1,-1,-1,-1,-1,-1,-1,-1,-1],"loss_changes":[5.345893E7,1.2863334E7,5.356956E6,1.273628E6,1.4530594E6,4.436625E5,1.007836E6,1.2267E5,1.64098E5,1.141565E5,1.6242858E5,4.5684438E4,8.6945E4,1.95099E5,2.20144E5,1.8328E4,1.5051E4,3.426E4,2.377075E4,1.0187375E4,1.8501125E4,2.0354E4,1.283952E5,2.44355E4,1.842786E4,5.12665E4,2.6176562E4,7.5211E4,3.10625E4,1.21707E5,7.2482E4,2.665E3,3.211E3,2.1795E3,1.75E3,3.8625E3,4.594E3,2.358E3,5.96825E3,6.7005E3,2.901875E3,8.44775E3,7.3234375E3,3.2350781E3,2.8006875E3,3.1643377E4,3.80125E4,5.5861484E3,7.8668438E3,3.609669E3,7.3478906E3,3.448E3,9.928E3,8.536594E3,7.7554375E3,2.051275E4,1.7722E4,7.292875E3,2.081675E4,2.7517E4,2.693425E4,2.6614E4,3.349375E3,0E0,0E0,0E0,0E0,0E0,0E0,0E0,0E0,0E0,0E0,0E0,0E0,0E0,0E0,0E0,0E0,0E0,0E0,0E0,0E0,0E0,0E0,0E0,0E0,0E0,0E0,0E0,0E0,0E0,0E0,0E0,0E0,0E0,0E0,0E0,0E0,0E0,0E0,0E0,0E0,0E0,0E0,0E0,0E0,0E0,0E0,0E0,0E0,0E0,0E0,0E0,0E0,0E0,0E0,0E0,0E0,0E0,0E0,0E0,0E0,0E0,0E0,0E0,0E0],"parents":[2147483647,0,0,1,1,2,2,3,3,4,4,5,5,6,6,7,7,8,8,9,9,10,10,11,11,12,12,13,13,14,14,15,15,16,16,17,17,18,18,19,19,20,20,21,21,22,22,23,23,24,24,25,25,26,26,27,27,28,28,29,29,30,30,31,31,32,32,33,33,34,34,35,35,36,36,37,37,38,38,39,39,40,40,41,41,42,42,43,43,44,44,45,45,46,46,47,47,48,48,49,49,50,50,51,51,52,52,53,53,54,54,55,55,56,56,57,57,58,58,59,59,60,60,61,61,62,62],"right_children":[2,4,6,8,10,12,14,16,18,20,22,24,26,28,30,32,34,36,38,40,42,44,46,48,50,52,54,56,58,60,62,64,66,68,70,72,74,76,78,80,82,84,86,88,90,92,94,96,98,100,102,104,106,108,110,112,114,116,118,120,122,124,126,-1,-1,-1,-1,-1,-1,-1,-1,-1,-1,-1,-1,-1,-1,-1,-1,-1,-1,-1,-1,-1,-1,-1,-1,-1,-1,-1,-1,-1,-1,-1,-1,-1,-1,-1,-1,-1,-1,-1,-1,-1,-1,-1,-1,-1,-1,-1,-1,-1,-1,-1,-1,-1,-1,-1,-1,-1,-1,-1,-1,-1,-1,-1,-1],"split_conditions":[6.97E1,3.905E1,9.281E1,2.184E1,5.383E1,8.059E1,1.0781E2,1.385E1,3.198E1,4.506E1,6.029E1,2E0,2E0,2E0,1.1619E2,8.38E0,1.873E1,2.715E1,3.487E1,3E0,2E0,2E0,2E0,7.404E1,7.341E1,8.577E1,8.577E1,9.924E1,9.814E1,2E0,3E0,1E0,1.174E1,1.648E1,2E0,2E0,1E0,1E0,3E0,4.278E1,4.185E1,4.929E1,4.978E1,5.703E1,1E0,1E0,6.425E1,1E0,1E0,3E0,3E0,8.474E1,1E0,3E0,3E0,1E0,1E0,3E0,3E0,1.1385E2,3E0,1E0,1.177E2,-1.8134279E0,-1.904809E0,-1.7396799E0,-1.6597496E0,-1.5935789E0,-1.5290495E0,-1.3976629E0,-1.4703687E0,-1.2509335E0,-1.3251518E0,-1.0785536E0,-1.1616181E0,-9.75567E-1,-1.0546733E0,-8.583086E-1,-9.768651E-1,-7.141306E-1,-6.144205E-1,-8.4970945E-1,-7.3851794E-1,-4.7912136E-1,-3.702166E-1,-6.021895E-1,-4.8455843E-1,-2.4664429E-1,-1.6574287E-1,-3.8774472E-1,-2.960107E-1,1.0447611E-1,-1.78804E-2,-1.8617469E-1,6.628646E-4,3.7304997E-1,2.3963547E-1,4.4560194E-1,5.8897984E-1,1.8789093E-1,6.4723164E-2,3.6760828E-1,2.3302232E-1,6.550705E-1,7.684668E-1,8.5685855E-1,9.9557114E-1,5.460525E-1,3.7638077E-1,7.298588E-1,5.8688253E-1,1.0968755E0,1.2844576E0,1.4739356E0,1.3187474E0,9.420261E-1,7.9354113E-1,1.1654049E0,9.7191346E-1,1.5963751E0,1.7860634E0,1.4662873E0,1.2367375E0,1.8863907E0,2.1174018E0,1.4025899E0,1.5911622E0],"split_indices":[0,0,0,0,0,0,0,0,0,0,0,1,1,1,0,0,0,0,0,1,1,1,1,0,0,0,0,0,0,1,1,2,0,0,1,1,1,1,1,0,0,0,0,0,4,1,0,1,4,1,1,0,4,1,1,4,1,1,1,0,1,4,0,0,0,0,0,0,0,0,0,0,0,0,0,0,0,0,0,0,0,0,0,0,0,0,0,0,0,0,0,0,0,0,0,0,0,0,0,0,0,0,0,0,0,0,0,0,0,0,0,0,0,0,0,0,0,0,0,0,0,0,0,0,0,0,0],"split_type":[0,0,0,0,0,0,0,0,0,0,0,0,0,0,0,0,0,0,0,0,0,0,0,0,0,0,0,0,0,0,0,0,0,0,0,0,0,0,0,0,0,0,0,0,0,0,0,0,0,0,0,0,0,0,0,0,0,0,0,0,0,0,0,0,0,0,0,0,0,0,0,0,0,0,0,0,0,0,0,0,0,0,0,0,0,0,0,0,0,0,0,0,0,0,0,0,0,0,0,0,0,0,0,0,0,0,0,0,0,0,0,0,0,0,0,0,0,0,0,0,0,0,0,0,0,0,0],"sum_hessian":[7.5E5,4.53931E5,2.96069E5,1.84648E5,2.69283E5,1.22978E5,1.73091E5,7.6176E4,1.08472E5,8.7922E4,1.81361E5,5.5704E4,6.7274E4,9.0926E4,8.2165E4,3.8053E4,3.8123E4,6.4364E4,4.4108E4,3.804E4,4.9882E4,3.5189E4,1.46172E5,2.9922E4,2.5782E4,4.007E4,2.7204E4,5.5119E4,3.5807E4,5.5764E4,2.6401E4,1.4615E4,2.3438E4,2.3274E4,1.4849E4,2.9314E4,3.505E4,2.0625E4,2.3483E4,2.8449E4,9.591E3,2.8594E4,2.1288E4,1.9809E4,1.538E4,8.483E4,6.1342E4,1.2614E4,1.7308E4,9.533E3,1.6249E4,1.728E4,2.279E4,1.1904E4,1.53E4,2.5287E4,2.9832E4,1.3412E4,2.2395E4,3.5181E4,2.0583E4,2.2347E4,4.054E3,8.177E3,6.438E3,1.4689E4,8.749E3,1.1745E4,1.1529E4,7.885E3,6.964E3,1.5345E4,1.3969E4,9.33E3,2.572E4,5.301E3,1.5324E4,1.7812E4,5.671E3,1.7277E4,1.1172E4,4.818E3,4.773E3,1.3731E4,1.4863E4,1.1066E4,1.0222E4,9.64E3,1.0169E4,1.0469E4,4.911E3,4.4879E4,3.9951E4,4.7186E4,1.4156E4,6.666E3,5.948E3,1.1563E4,5.745E3,4.589E3,4.944E3,7.985E3,8.264E3,1.3904E4,3.376E3,1.4756E4,8.034E3,6.163E3,5.741E3,8.046E3,7.254E3,1.6032E4,9.255E3,1.566E4,1.4172E4,7.094E3,6.318E3,1.0754E4,1.1641E4,2.3732E4,1.1449E4,1.0304E4,1.0279E4,1.4608E4,7.739E3,1.843E3,2.211E3],"tree_param":{"num_deleted":"0","num_feature":"5","num_nodes":"127","size_leaf_vector":"1"}},{"base_weights":[7.360764E-5,-5.8864083E0,9.810416E0,-1.1409302E1,-1.58948E0,5.8871856E0,1.3122275E1,-1.4566775E1,-9.304132E0,-3.9944458E0,-1.2629573E-1,4.212117E0,7.887826E0,1.1834758E1,1.6297768E1,-1.58872385E1,-1.3424268E1,-1.0348899E1,-7.422934E0,-4.9515657E0,-2.7834382E0,-5.9058636E-1,1.3960203E0,3.1668727E0,5.0945377E0,8.824864E0,6.447408E0,1.2925412E1,1.0135017E1,1.7329882E1,1.4331522E1,-1.6836353E1,-1.5465027E1,-1.3973061E1,-1.2601796E1,-1.11817255E1,-9.681953E0,-8.171284E0,-6.9263396E0,-5.66211E0,-4.4324656E0,-2.2392824E0,-3.502091E0,-1.3920082E-1,-2.3308468E0,1.7945764E0,5.8004174E-2,3.9708855E0,2.1965864E0,5.5502577E0,3.3352265E0,7.8552628E0,9.764375E0,5.558858E0,7.234346E0,1.1648141E1,1.4015218E1,9.245145E0,1.1466008E1,1.6456474E1,1.9063412E1,1.5398996E1,1.3094051E1,-1.6488675E0,-1.7248821E0,-1.580058E0,-1.5043067E0,-1.4271064E0,-1.3597124E0,-1.2250713E0,-1.2998295E0,-1.1525763E0,-1.0836759E0,-9.478182E-1,-1.0326279E0,-7.316362E-1,-8.4893477E-1,-6.475996E-1,-7.399148E-1,-5.389601E-1,-6.5776676E-1,-3.9627346E-1,-5.0404954E-1,-2.9748493E-1,-1.955322E-1,-3.1118128E-1,-3.8824937E-1,6.753751E-2,-6.5456234E-2,-1.5850445E-2,-2.866362E-1,2.4805422E-1,1.3788311E-1,-3.7470892E-2,1.0787751E-1,3.529215E-1,4.8615217E-1,2.8272069E-1,1.5801571E-1,6.240872E-1,5.130067E-1,3.5636488E-1,2.86313E-1,7.4835837E-1,8.543255E-1,9.263687E-1,1.0633513E0,6.1654943E-1,4.8928848E-1,7.8751975E-1,6.499301E-1,1.0996873E0,1.2785147E0,1.3452128E0,1.506203E0,8.6183625E-1,1.0543112E0,1.2488532E0,1.0505384E0,1.6776556E0,1.345107E0,1.9820492E0,1.7948252E0,1.4793628E0,1.7743505E0,1.2471185E0,1.4574329E0],"categories":[],"categories_nodes":[],"categories_segments":[],"categories_sizes":[],"default_left":[0,0,0,0,0,0,0,0,0,0,0,0,0,0,0,0,0,0,0,0,0,0,0,0,0,0,0,0,0,0,0,0,0,0,0,0,0,0,0,0,0,0,0,0,0,0,0,0,0,0,0,0,0,0,0,0,0,0,0,0,0,0,0,0,0,0,0,0,0,0,0,0,0,0,0,0,0,0,0,0,0,0,0,0,0,0,0,0,0,0,0,0,0,0,0,0,0,0,0,0,0,0,0,0,0,0,0,0,0,0,0,0,0,0,0,0,0,0,0,0,0,0,0,0,0,0,0],"id":9,"left_children":[1,3,5,7,9,11,13,15,17,19,21,23,25,27,29,31,33,35,37,39,41,43,45,47,49,51,53,55,57,59,61,63,65,67,69,71,73,75,77,79,81,83,85,87,89,91,93,95,97,99,101,103,105,107,109,111,113,115,117,119,121,123,125,-1,-1,-1,-1,-1,-1,-1,-1,-1,-1,-1,-1,-1,-1,-1,-1,-1,-1,-1,-1,-1,-1,-1,-1,-1,-1,-1,-1,-1,-1,-1,-1,-1,-1,-1,-1,-1,-1,-1,-1,-1,-1,-1,-1,-1,-1,-1,-1,-1,-1,-1,-1,-1,-1,-1,-1,-1,-1,-1,-1,-1,-1,-1,-1],"loss_changes":[4.331142E7,1.1123943E7,3.654376E6,1.363242E6,9.276999E5,4.31428E5,6.23354E5,1.23566E5,2.41796E5,1.15573E5,1.15852625E5,6.4619875E4,7.913275E4,2.01044E5,8.9034E4,1.499E4,1.96815E4,4.3839E4,1.627475E4,2.051925E4,1.7208531E4,9.866517E4,2.042857E4,2.5019188E4,3.044575E4,3.2302E4,1.6131625E4,9.1844E4,5.01375E4,4.3362E4,1.981125E4,1.39425E3,3.493E3,2.761E3,2.293E3,4.0505E3,5.67175E3,4.703E3,5.57825E3,5.83025E3,9.1738125E3,5.2278906E3,2.8040938E3,4.1869727E4,3.0093531E4,8.414164E3,3.8842803E3,6.8836875E3,5.647703E3,8.725375E3,8.3308594E2,4.41025E3,7.7555E3,4.3601562E3,5.7249375E3,2.23985E4,2.08185E4,2.059575E4,1.656025E4,1.82335E4,7.798E3,1.12735E4,6.293625E3,0E0,0E0,0E0,0E0,0E0,0E0,0E0,0E0,0E0,0E0,0E0,0E0,0E0,0E0,0E0,0E0,0E0,0E0,0E0,0E0,0E0,0E0,0E0,0E0,0E0,0E0,0E0,0E0,0E0,0E0,0E0,0E0,0E0,0E0,0E0,0E0,0E0,0E0,0E0,0E0,0E0,0E0,0E0,0E0,0E0,0E0,0E0,0E0,0E0,0E0,0E0,0E0,0E0,0E0,0E0,0E0,0E0,0E0,0E0,0E0,0E0,0E0,0E0,0E0],"parents":[2147483647,0,0,1,1,2,2,3,3,4,4,5,5,6,6,7,7,8,8,9,9,10,10,11,11,12,12,13,13,14,14,15,15,16,16,17,17,18,18,19,19,20,20,21,21,22,22,23,23,24,24,25,25,26,26,27,27,28,28,29,29,30,30,31,31,32,32,33,33,34,34,35,35,36,36,37,37,38,38,39,39,40,40,41,41,42,42,43,43,44,44,45,45,46,46,47,47,48,48,49,49,50,50,51,51,52,52,53,53,54,54,55,55,56,56,57,57,58,58,59,59,60,60,61,61,62,62],"right_children":[2,4,6,8,10,12,14,16,18,20,22,24,26,28,30,32,34,36,38,40,42,44,46,48,50,52,54,56,58,60,62,64,66,68,70,72,74,76,78,80,82,84,86,88,90,92,94,96,98,100,102,104,106,108,110,112,114,116,118,120,122,124,126,-1,-1,-1,-1,-1,-1,-1,-1,-1,-1,-1,-1,-1,-1,-1,-1,-1,-1,-1,-1,-1,-1,-1,-1,-1,-1,-1,-1,-1,-1,-1,-1,-1,-1,-1,-1,-1,-1,-1,-1,-1,-1,-1,-1,-1,-1,-1,-1,-1,-1,-1,-1,-1,-1,-1,-1,-1,-1,-1,-1,-1,-1,-1,-1],"split_conditions":[7.232E1,4.234E1,9.603E1,2.308E1,5.979E1,8.577E1,1.1385E2,1.385E1,3.487E1,5.207E1,6.578E1,7.884E1,2E0,2E0,2E0,7.75E0,1.928E1,2.909E1,3.794E1,4.621E1,2E0,3E0,3E0,2E0,3E0,9.142E1,9.094E1,1.044E2,1.0693E2,1.177E2,3E0,1E0,1.085E1,1.689E1,2E0,2.623E1,3E0,1E0,2E0,3E0,2E0,5.383E1,3E0,1E0,6.379E1,1E0,1E0,1E0,3E0,1E0,1E0,1E0,1E0,3E0,3E0,1E0,1E0,1E0,3E0,1.1724E2,1.1913E2,1.1871E2,1E0,-1.6488675E0,-1.7248821E0,-1.580058E0,-1.5043067E0,-1.4271064E0,-1.3597124E0,-1.2250713E0,-1.2998295E0,-1.1525763E0,-1.0836759E0,-9.478182E-1,-1.0326279E0,-7.316362E-1,-8.4893477E-1,-6.475996E-1,-7.399148E-1,-5.389601E-1,-6.5776676E-1,-3.9627346E-1,-5.0404954E-1,-2.9748493E-1,-1.955322E-1,-3.1118128E-1,-3.8824937E-1,6.753751E-2,-6.5456234E-2,-1.5850445E-2,-2.866362E-1,2.4805422E-1,1.3788311E-1,-3.7470892E-2,1.0787751E-1,3.529215E-1,4.8615217E-1,2.8272069E-1,1.5801571E-1,6.240872E-1,5.130067E-1,3.5636488E-1,2.86313E-1,7.4835837E-1,8.543255E-1,9.263687E-1,1.0633513E0,6.1654943E-1,4.8928848E-1,7.8751975E-1,6.499301E-1,1.0996873E0,1.2785147E0,1.3452128E0,1.506203E0,8.6183625E-1,1.0543112E0,1.2488532E0,1.0505384E0,1.6776556E0,1.345107E0,1.9820492E0,1.7948252E0,1.4793628E0,1.7743505E0,1.2471185E0,1.4574329E0],"split_indices":[0,0,0,0,0,0,0,0,0,0,0,0,1,1,1,0,0,0,0,0,1,1,1,1,1,0,0,0,0,0,1,2,0,0,1,0,1,1,1,1,1,0,1,1,0,1,4,4,1,1,3,4,4,1,1,4,4,4,1,0,0,0,4,0,0,0,0,0,0,0,0,0,0,0,0,0,0,0,0,0,0,0,0,0,0,0,0,0,0,0,0,0,0,0,0,0,0,0,0,0,0,0,0,0,0,0,0,0,0,0,0,0,0,0,0,0,0,0,0,0,0,0,0,0,0,0,0],"split_type":[0,0,0,0,0,0,0,0,0,0,0,0,0,0,0,0,0,0,0,0,0,0,0,0,0,0,0,0,0,0,0,0,0,0,0,0,0,0,0,0,0,0,0,0,0,0,0,0,0,0,0,0,0,0,0,0,0,0,0,0,0,0,0,0,0,0,0,0,0,0,0,0,0,0,0,0,0,0,0,0,0,0,0,0,0,0,0,0,0,0,0,0,0,0,0,0,0,0,0,0,0,0,0,0,0,0,0,0,0,0,0,0,0,0,0,0,0,0,0,0,0,0,0,0,0,0,0],"sum_hessian":[7.5E5,4.68742E5,2.81258E5,2.0511E5,2.63632E5,1.28747E5,1.52511E5,8.2046E4,1.23064E5,9.9722E4,1.6391E5,7.0077E4,5.867E4,1.08517E5,4.3994E4,3.8053E4,4.3993E4,7.9119E4,4.3945E4,5.5698E4,4.4024E4,1.25603E5,3.8307E4,3.2081E4,3.7996E4,3.5543E4,2.3127E4,6.6098E4,4.2419E4,2.8845E4,1.5149E4,1.1704E4,2.6349E4,2.6377E4,1.7616E4,3.5177E4,4.3942E4,1.7523E4,2.6422E4,2.3509E4,3.2189E4,2.5056E4,1.8968E4,9.9735E4,2.5868E4,2.9515E4,8.792E3,1.7542E4,1.4539E4,3.0177E4,7.819E3,1.7496E4,1.8047E4,1.0866E4,1.2261E4,3.0437E4,3.5661E4,2.5427E4,1.6992E4,1.9188E4,9.657E3,8.127E3,7.022E3,6.373E3,5.331E3,1.4657E4,1.1692E4,1.4693E4,1.1684E4,9.36E3,8.256E3,1.7596E4,1.7581E4,3.3396E4,1.0546E4,4.758E3,1.2765E4,1.354E4,1.2882E4,1.8122E4,5.387E3,1.8164E4,1.4025E4,6.976E3,1.808E4,9.367E3,9.601E3,3.8648E4,6.1087E4,5.116E3,2.0752E4,1.1136E4,1.8379E4,6.175E3,2.617E3,1.173E4,5.812E3,7.185E3,7.354E3,1.141E4,1.8767E4,5.265E3,2.554E3,1.1367E4,6.129E3,1.1458E4,6.589E3,5.682E3,5.184E3,6.545E3,5.716E3,1.9359E4,1.1078E4,2.3197E4,1.2464E4,1.7152E4,8.275E3,8.225E3,8.767E3,1.7337E4,1.851E3,5.742E3,3.915E3,6.465E3,1.662E3,4.949E3,2.073E3],"tree_param":{"num_deleted":"0","num_feature":"5","num_nodes":"127","size_leaf_vector":"1"}},{"base_weights":[7.8549616E-5,-5.5243597E0,8.4701E0,-1.0731803E1,-1.9535768E0,4.62389E0,1.1559789E1,-1.3193621E1,-8.89079E0,-4.466918E0,-5.4471755E-1,2.9910955E0,6.3313513E0,1.0028541E1,1.3925665E1,-1.4298685E1,-1.2166361E1,-9.7211E0,-7.7321563E0,-5.711536E0,-3.6600792E0,1.038335E-1,-1.4313211E0,2.1166506E0,3.7933807E0,7.0925703E0,5.1803493E0,1.1067392E1,8.443862E0,1.48371315E1,1.2247147E1,-1.4921082E1,-1.3765399E1,-1.2653063E1,-1.1524768E1,-1.0246221E1,-9.138021E0,-8.20092E0,-7.026575E0,-4.9488196E0,-5.9862823E0,-3.9905882E0,-2.6682122E0,-1.4418273E0,4.1111258E-1,-1.7999376E0,-4.461829E-2,3.336061E0,1.6400546E0,4.46518E0,2.9473562E0,6.293678E0,8.006194E0,4.487339E0,6.50112E0,1.026392E1,1.2240023E1,7.076971E0,8.999025E0,1.3732444E1,1.6385965E1,1.1674878E1,1.4255445E1,-1.4588016E0,-1.5368162E0,-1.4010996E0,-1.3433801E0,-1.2360357E0,-1.300033E0,-1.1217521E0,-1.1876091E0,-1.0081273E0,-1.0738822E0,-8.9465994E-1,-9.7729915E-1,-7.5237715E-1,-8.4307766E-1,-6.8610185E-1,-7.579355E-1,-5.2118343E-1,-4.5531687E-1,-6.2177116E-1,-5.21143E-1,-3.722918E-1,-4.9736688E-1,-2.3278594E-1,-3.923444E-1,-1.6210647E-1,-7.564569E-2,1.1256034E-2,1.3780187E-1,-2.2019713E-1,-9.618404E-2,-4.2182278E-2,8.18603E-2,2.922158E-1,4.0456548E-1,2.0634036E-1,8.072763E-2,4.1381356E-1,5.100948E-1,2.4931037E-1,3.6527345E-1,5.947606E-1,6.948979E-1,8.4472656E-1,7.074485E-1,5.090752E-1,3.8443866E-1,7.081634E-1,5.8377284E-1,1.0998577E0,9.505456E-1,1.2860965E0,1.1495442E0,6.299144E-1,7.603676E-1,9.9961084E-1,8.0897945E-1,1.3190892E0,1.4741133E0,1.5681131E0,1.7683144E0,1.0969248E0,1.3246745E0,1.5274702E0,1.2386911E0],"categories":[],"categories_nodes":[],"categories_segments":[],"categories_sizes":[],"default_left":[0,0,0,0,0,0,0,0,0,0,0,0,0,0,0,0,0,0,0,0,0,0,0,0,0,0,0,0,0,0,0,0,0,0,0,0,0,0,0,0,0,0,0,0,0,0,0,0,0,0,0,0,0,0,0,0,0,0,0,0,0,0,0,0,0,0,0,0,0,0,0,0,0,0,0,0,0,0,0,0,0,0,0,0,0,0,0,0,0,0,0,0,0,0,0,0,0,0,0,0,0,0,0,0,0,0,0,0,0,0,0,0,0,0,0,0,0,0,0,0,0,0,0,0,0,0,0],"id":10,"left_children":[1,3,5,7,9,11,13,15,17,19,21,23,25,27,29,31,33,35,37,39,41,43,45,47,49,51,53,55,57,59,61,63,65,67,69,71,73,75,77,79,81,83,85,87,89,91,93,95,97,99,101,103,105,107,109,111,113,115,117,119,121,123,125,-1,-1,-1,-1,-1,-1,-1,-1,-1,-1,-1,-1,-1,-1,-1,-1,-1,-1,-1,-1,-1,-1,-1,-1,-1,-1,-1,-1,-1,-1,-1,-1,-1,-1,-1,-1,-1,-1,-1,-1,-1,-1,-1,-1,-1,-1,-1,-1,-1,-1,-1,-1,-1,-1,-1,-1,-1,-1,-1,-1,-1,-1,-1,-1],"loss_changes":[3.5094176E7,8.440684E6,3.518322E6,8.36756E5,9.535171E5,3.676815E5,5.94646E5,8.9509E4,1.01561E5,9.7113E4,9.922233E4,4.7291438E4,5.64495E4,1.63996E5,9.8509E4,1.2425E4,1.26415E4,1.8749E4,1.45315E4,7.942E3,1.9228188E4,4.7333562E4,3.726361E4,1.874411E4,1.9970312E4,2.82715E4,2.3464938E4,5.6596E4,2.989E4,7.1296E4,2.59305E4,2.38875E3,1.4815E3,2.20525E3,1.77475E3,2.52225E3,3.458E3,4.0605E3,1.5599375E3,1.0252031E3,4.9818125E3,1.15641875E4,6.2586406E3,2.0290117E3,2.3998012E4,1.9402781E4,4.9854487E3,2.6506016E3,8.176926E3,4.053375E3,4.9782344E3,4.654375E3,7.377625E3,6.513E3,3.3595312E3,1.980525E4,1.1167E4,4.625E3,2.5365E4,1.31365E4,1.56285E4,1.9461E4,9.3923125E3,0E0,0E0,0E0,0E0,0E0,0E0,0E0,0E0,0E0,0E0,0E0,0E0,0E0,0E0,0E0,0E0,0E0,0E0,0E0,0E0,0E0,0E0,0E0,0E0,0E0,0E0,0E0,0E0,0E0,0E0,0E0,0E0,0E0,0E0,0E0,0E0,0E0,0E0,0E0,0E0,0E0,0E0,0E0,0E0,0E0,0E0,0E0,0E0,0E0,0E0,0E0,0E0,0E0,0E0,0E0,0E0,0E0,0E0,0E0,0E0,0E0,0E0,0E0,0E0],"parents":[2147483647,0,0,1,1,2,2,3,3,4,4,5,5,6,6,7,7,8,8,9,9,10,10,11,11,12,12,13,13,14,14,15,15,16,16,17,17,18,18,19,19,20,20,21,21,22,22,23,23,24,24,25,25,26,26,27,27,28,28,29,29,30,30,31,31,32,32,33,33,34,34,35,35,36,36,37,37,38,38,39,39,40,40,41,41,42,42,43,43,44,44,45,45,46,46,47,47,48,48,49,49,50,50,51,51,52,52,53,53,54,54,55,55,56,56,57,57,58,58,59,59,60,60,61,61,62,62],"right_children":[2,4,6,8,10,12,14,16,18,20,22,24,26,28,30,32,34,36,38,40,42,44,46,48,50,52,54,56,58,60,62,64,66,68,70,72,74,76,78,80,82,84,86,88,90,92,94,96,98,100,102,104,106,108,110,112,114,116,118,120,122,124,126,-1,-1,-1,-1,-1,-1,-1,-1,-1,-1,-1,-1,-1,-1,-1,-1,-1,-1,-1,-1,-1,-1,-1,-1,-1,-1,-1,-1,-1,-1,-1,-1,-1,-1,-1,-1,-1,-1,-1,-1,-1,-1,-1,-1,-1,-1,-1,-1,-1,-1,-1,-1,-1,-1,-1,-1,-1,-1,-1,-1,-1,-1,-1,-1],"split_conditions":[6.97E1,3.905E1,9.428E1,2.243E1,5.526E1,8.26E1,1.109E2,1.385E1,3.198E1,4.506E1,2E0,7.599E1,2E0,2E0,2E0,9.03E0,1.873E1,2.813E1,3.597E1,1E0,5.288E1,6.082E1,6.391E1,1E0,2E0,8.905E1,9.029E1,1.0392E2,9.863E1,1.1619E2,1.177E2,1E0,1.174E1,2E0,2E0,3E0,3E0,1E0,3E0,4.278E1,4.38E1,3E0,3E0,5.979E1,6.391E1,1E0,1E0,7.341E1,3E0,1E0,7.997E1,1E0,1E0,3E0,3E0,1E0,1E0,9.603E1,3E0,1E0,1E0,1E0,1E0,-1.4588016E0,-1.5368162E0,-1.4010996E0,-1.3433801E0,-1.2360357E0,-1.300033E0,-1.1217521E0,-1.1876091E0,-1.0081273E0,-1.0738822E0,-8.9465994E-1,-9.7729915E-1,-7.5237715E-1,-8.4307766E-1,-6.8610185E-1,-7.579355E-1,-5.2118343E-1,-4.5531687E-1,-6.2177116E-1,-5.21143E-1,-3.722918E-1,-4.9736688E-1,-2.3278594E-1,-3.923444E-1,-1.6210647E-1,-7.564569E-2,1.1256034E-2,1.3780187E-1,-2.2019713E-1,-9.618404E-2,-4.2182278E-2,8.18603E-2,2.922158E-1,4.0456548E-1,2.0634036E-1,8.072763E-2,4.1381356E-1,5.100948E-1,2.4931037E-1,3.6527345E-1,5.947606E-1,6.948979E-1,8.4472656E-1,7.074485E-1,5.090752E-1,3.8443866E-1,7.081634E-1,5.8377284E-1,1.0998577E0,9.505456E-1,1.2860965E0,1.1495442E0,6.299144E-1,7.603676E-1,9.9961084E-1,8.0897945E-1,1.3190892E0,1.4741133E0,1.5681131E0,1.7683144E0,1.0969248E0,1.3246745E0,1.5274702E0,1.2386911E0],"split_indices":[0,0,0,0,0,0,0,0,0,0,1,0,1,1,1,0,0,0,0,1,0,0,0,1,1,0,0,0,0,0,0,2,0,1,1,1,1,1,1,0,0,1,1,0,0,4,4,0,1,4,0,4,2,1,1,1,1,0,1,4,4,4,3,0,0,0,0,0,0,0,0,0,0,0,0,0,0,0,0,0,0,0,0,0,0,0,0,0,0,0,0,0,0,0,0,0,0,0,0,0,0,0,0,0,0,0,0,0,0,0,0,0,0,0,0,0,0,0,0,0,0,0,0,0,0,0,0],"split_type":[0,0,0,0,0,0,0,0,0,0,0,0,0,0,0,0,0,0,0,0,0,0,0,0,0,0,0,0,0,0,0,0,0,0,0,0,0,0,0,0,0,0,0,0,0,0,0,0,0,0,0,0,0,0,0,0,0,0,0,0,0,0,0,0,0,0,0,0,0,0,0,0,0,0,0,0,0,0,0,0,0,0,0,0,0,0,0,0,0,0,0,0,0,0,0,0,0,0,0,0,0,0,0,0,0,0,0,0,0,0,0,0,0,0,0,0,0,0,0,0,0,0,0,0,0,0,0],"sum_hessian":[7.5E5,4.53931E5,2.96069E5,1.84648E5,2.69283E5,1.31889E5,1.6418E5,7.9001E4,1.05647E5,9.6726E4,1.72557E5,6.742E4,6.4469E4,9.9674E4,6.4506E4,3.8053E4,4.0948E4,6.1539E4,4.4108E4,3.804E4,5.8686E4,9.9658E4,7.2899E4,3.2261E4,3.5159E4,3.8802E4,2.5667E4,6.0202E4,3.9472E4,4.18E4,2.2706E4,1.7547E4,2.0506E4,2.3274E4,1.7674E4,3.237E4,2.9169E4,2.6495E4,1.7613E4,1.0079E4,2.7961E4,4.4016E4,1.467E4,1.6526E4,8.3132E4,5.759E4,1.5309E4,9.064E3,2.3197E4,1.9595E4,1.5564E4,2.0705E4,1.8097E4,1.6837E4,8.83E3,3.573E4,2.4472E4,1.1405E4,2.8067E4,2.4404E4,1.7396E4,1.7676E4,5.03E3,1.0075E4,7.472E3,1.1757E4,8.749E3,1.2649E4,1.0625E4,9.446E3,8.228E3,2.4266E4,8.104E3,2.2424E4,6.745E3,6.723E3,1.9772E4,1.3564E4,4.049E3,6.047E3,4.032E3,2.1525E4,6.436E3,3.46E4,9.416E3,1.1543E4,3.127E3,1.3099E4,3.427E3,6.352E4,1.9612E4,3.8919E4,1.8671E4,1.0654E4,4.655E3,5.728E3,3.336E3,1.5378E4,7.819E3,1.2944E4,6.651E3,9.47E3,6.094E3,1.3556E4,7.149E3,1.2277E4,5.82E3,8.682E3,8.155E3,4.704E3,4.126E3,1.8143E4,1.7587E4,1.3335E4,1.1137E4,4.61E3,6.795E3,1.3382E4,1.4685E4,1.5888E4,8.516E3,1.128E4,6.116E3,1.2205E4,5.471E3,3.25E3,1.78E3],"tree_param":{"num_deleted":"0","num_feature":"5","num_nodes":"127","size_leaf_vector":"1"}},{"base_weights":[7.714907E-5,-5.137706E0,7.3801937E0,-9.658718E0,-1.8960828E0,3.7062037E0,1.024001E1,-1.1945845E1,-8.052455E0,-4.1897535E0,-7.070358E-1,2.2146685E0,5.20183E0,8.548361E0,1.2111908E1,-1.3027521E1,-1.1152008E1,-8.801662E0,-6.95901E0,-5.1404366E0,-3.4646742E0,-3.4631535E-1,-2.0684726E0,1.3857236E0,2.8532326E0,5.8968964E0,4.177856E0,9.409425E0,7.222667E0,1.1278095E1,1.3872587E1,-1.3808231E1,-1.2734802E1,-1.1635614E1,-1.0598708E1,-9.43861E0,-8.35912E0,-7.520504E0,-6.4655533E0,-4.4540343E0,-5.3876934E0,-2.6793497E0,-3.7873337E0,-1.817614E0,-8.879876E-3,-2.460528E0,-1.2139758E0,1.9711709E0,6.9876385E-1,3.2240887E0,1.6319436E0,5.03329E0,6.6762404E0,3.4084582E0,4.904923E0,8.376798E0,1.0179174E1,6.747645E0,8.202124E0,1.1799983E1,8.967801E0,1.4404163E1,1.0939533E1,-1.3522823E0,-1.4130648E0,-1.2977742E0,-1.2490529E0,-1.1327205E0,-1.201075E0,-1.0931509E0,-1.0349659E0,-9.108774E-1,-9.8012793E-1,-8.6887914E-1,-8.080476E-1,-7.298242E-1,-7.909662E-1,-6.234901E-1,-7.1887803E-1,-4.7388482E-1,-4.1535312E-1,-5.8106154E-1,-5.011348E-1,-3.2471436E-1,-2.146411E-1,-4.1345617E-1,-3.29662E-1,-1.5782318E-1,-2.4415617E-1,6.737978E-2,-4.430308E-2,-2.662288E-1,-1.2565903E-1,-2.643833E-1,-9.267064E-2,1.6401368E-1,2.6887012E-1,3.7862E-2,1.4338773E-1,3.8565406E-1,2.8496906E-1,1.0992837E-1,2.2336061E-1,4.7866535E-1,5.703699E-1,6.2724704E-1,7.4147105E-1,4.0685326E-1,2.6976877E-1,4.4502932E-1,5.793822E-1,7.8093094E-1,9.3542284E-1,9.731167E-1,1.0996823E0,7.3888975E-1,6.1315835E-1,7.2956693E-1,9.670451E-1,1.1261951E0,1.2818135E0,8.266857E-1,9.883896E-1,1.356839E0,1.5432398E0,1.0153493E0,1.158986E0],"categories":[],"categories_nodes":[],"categories_segments":[],"categories_sizes":[],"default_left":[0,0,0,0,0,0,0,0,0,0,0,0,0,0,0,0,0,0,0,0,0,0,0,0,0,0,0,0,0,0,0,0,0,0,0,0,0,0,0,0,0,0,0,0,0,0,0,0,0,0,0,0,0,0,0,0,0,0,0,0,0,0,0,0,0,0,0,0,0,0,0,0,0,0,0,0,0,0,0,0,0,0,0,0,0,0,0,0,0,0,0,0,0,0,0,0,0,0,0,0,0,0,0,0,0,0,0,0,0,0,0,0,0,0,0,0,0,0,0,0,0,0,0,0,0,0,0],"id":11,"left_children":[1,3,5,7,9,11,13,15,17,19,21,23,25,27,29,31,33,35,37,39,41,43,45,47,49,51,53,55,57,59,61,63,65,67,69,71,73,75,77,79,81,83,85,87,89,91,93,95,97,99,101,103,105,107,109,111,113,115,117,119,121,123,125,-1,-1,-1,-1,-1,-1,-1,-1,-1,-1,-1,-1,-1,-1,-1,-1,-1,-1,-1,-1,-1,-1,-1,-1,-1,-1,-1,-1,-1,-1,-1,-1,-1,-1,-1,-1,-1,-1,-1,-1,-1,-1,-1,-1,-1,-1,-1,-1,-1,-1,-1,-1,-1,-1,-1,-1,-1,-1,-1,-1,-1,-1,-1,-1],"loss_changes":[2.8438154E7,6.480239E6,3.234281E6,6.78254E5,7.0234594E5,3.0055475E5,5.48008E5,6.5266E4,8.88015E4,6.058925E4,8.329197E4,3.570603E4,4.7856875E4,1.037255E5,1.2047E5,7.1915E3,1.16345E4,1.80645E4,1.217275E4,6.43225E3,1.2629875E4,6.656695E4,1.189825E4,1.1805383E4,1.7253812E4,2.6936125E4,1.5201844E4,4.3728E4,1.6604875E4,6.71315E4,4.1007E4,6.16875E2,1.23E3,2.5755E3,1.5865E3,3.066E3,3.41925E3,1.72625E3,3.8725E3,8.430469E2,4.4214375E3,4.389797E3,6.0103438E3,3.7322969E3,3.2326432E4,5.911672E3,4.5877285E3,3.7601562E3,3.1786929E3,6.9100625E3,2.8427812E3,3.11625E3,6.233E3,6.191797E3,5.6258438E3,1.2987375E4,1.1459E4,9.482875E3,1.54885E4,2.47725E4,6.5194375E3,1.89955E4,1.9551562E3,0E0,0E0,0E0,0E0,0E0,0E0,0E0,0E0,0E0,0E0,0E0,0E0,0E0,0E0,0E0,0E0,0E0,0E0,0E0,0E0,0E0,0E0,0E0,0E0,0E0,0E0,0E0,0E0,0E0,0E0,0E0,0E0,0E0,0E0,0E0,0E0,0E0,0E0,0E0,0E0,0E0,0E0,0E0,0E0,0E0,0E0,0E0,0E0,0E0,0E0,0E0,0E0,0E0,0E0,0E0,0E0,0E0,0E0,0E0,0E0,0E0,0E0,0E0,0E0],"parents":[2147483647,0,0,1,1,2,2,3,3,4,4,5,5,6,6,7,7,8,8,9,9,10,10,11,11,12,12,13,13,14,14,15,15,16,16,17,17,18,18,19,19,20,20,21,21,22,22,23,23,24,24,25,25,26,26,27,27,28,28,29,29,30,30,31,31,32,32,33,33,34,34,35,35,36,36,37,37,38,38,39,39,40,40,41,41,42,42,43,43,44,44,45,45,46,46,47,47,48,48,49,49,50,50,51,51,52,52,53,53,54,54,55,55,56,56,57,57,58,58,59,59,60,60,61,61,62,62],"right_children":[2,4,6,8,10,12,14,16,18,20,22,24,26,28,30,32,34,36,38,40,42,44,46,48,50,52,54,56,58,60,62,64,66,68,70,72,74,76,78,80,82,84,86,88,90,92,94,96,98,100,102,104,106,108,110,112,114,116,118,120,122,124,126,-1,-1,-1,-1,-1,-1,-1,-1,-1,-1,-1,-1,-1,-1,-1,-1,-1,-1,-1,-1,-1,-1,-1,-1,-1,-1,-1,-1,-1,-1,-1,-1,-1,-1,-1,-1,-1,-1,-1,-1,-1,-1,-1,-1,-1,-1,-1,-1,-1,-1,-1,-1,-1,-1,-1,-1,-1,-1,-1,-1,-1,-1,-1,-1],"split_conditions":[6.773E1,3.905E1,9.281E1,2.184E1,5.383E1,8.059E1,1.0781E2,1.25E1,3.198E1,4.506E1,3E0,7.284E1,2E0,2E0,1.1619E2,7.13E0,1.746E1,2.671E1,3.487E1,1E0,1E0,5.979E1,1E0,2E0,3E0,8.63E1,8.63E1,9.863E1,1E0,3E0,3E0,1E0,9.53E0,2E0,1.928E1,2E0,2.951E1,1E0,3E0,4.234E1,4.185E1,4.929E1,5.023E1,2E0,1E0,6.391E1,5.869E1,1E0,1E0,1E0,7.706E1,8.474E1,1E0,3E0,1E0,1E0,1E0,3E0,1.0208E2,1E0,1.1258E2,1.1817E2,1.177E2,-1.3522823E0,-1.4130648E0,-1.2977742E0,-1.2490529E0,-1.1327205E0,-1.201075E0,-1.0931509E0,-1.0349659E0,-9.108774E-1,-9.8012793E-1,-8.6887914E-1,-8.080476E-1,-7.298242E-1,-7.909662E-1,-6.234901E-1,-7.1887803E-1,-4.7388482E-1,-4.1535312E-1,-5.8106154E-1,-5.011348E-1,-3.2471436E-1,-2.146411E-1,-4.1345617E-1,-3.29662E-1,-1.5782318E-1,-2.4415617E-1,6.737978E-2,-4.430308E-2,-2.662288E-1,-1.2565903E-1,-2.643833E-1,-9.267064E-2,1.6401368E-1,2.6887012E-1,3.7862E-2,1.4338773E-1,3.8565406E-1,2.8496906E-1,1.0992837E-1,2.2336061E-1,4.7866535E-1,5.703699E-1,6.2724704E-1,7.4147105E-1,4.0685326E-1,2.6976877E-1,4.4502932E-1,5.793822E-1,7.8093094E-1,9.3542284E-1,9.731167E-1,1.0996823E0,7.3888975E-1,6.1315835E-1,7.2956693E-1,9.670451E-1,1.1261951E0,1.2818135E0,8.266857E-1,9.883896E-1,1.356839E0,1.5432398E0,1.0153493E0,1.158986E0],"split_indices":[0,0,0,0,0,0,0,0,0,0,1,0,1,1,0,0,0,0,0,1,1,0,4,1,1,0,0,0,4,1,1,2,0,1,0,1,0,2,1,0,0,0,0,1,1,0,0,4,4,1,0,0,4,1,4,4,4,1,0,4,0,0,0,0,0,0,0,0,0,0,0,0,0,0,0,0,0,0,0,0,0,0,0,0,0,0,0,0,0,0,0,0,0,0,0,0,0,0,0,0,0,0,0,0,0,0,0,0,0,0,0,0,0,0,0,0,0,0,0,0,0,0,0,0,0,0,0],"split_type":[0,0,0,0,0,0,0,0,0,0,0,0,0,0,0,0,0,0,0,0,0,0,0,0,0,0,0,0,0,0,0,0,0,0,0,0,0,0,0,0,0,0,0,0,0,0,0,0,0,0,0,0,0,0,0,0,0,0,0,0,0,0,0,0,0,0,0,0,0,0,0,0,0,0,0,0,0,0,0,0,0,0,0,0,0,0,0,0,0,0,0,0,0,0,0,0,0,0,0,0,0,0,0,0,0,0,0,0,0,0,0,0,0,0,0,0,0,0,0,0,0,0,0,0,0,0,0],"sum_hessian":[7.5E5,4.42174E5,3.07826E5,1.84648E5,2.57526E5,1.34735E5,1.73091E5,7.6176E4,1.08472E5,8.7922E4,1.69604E5,6.7461E4,6.7274E4,9.0926E4,8.2165E4,3.2236E4,4.394E4,6.4364E4,4.4108E4,3.804E4,4.9882E4,1.3408E5,3.5524E4,2.9356E4,3.8105E4,4.007E4,2.7204E4,5.5119E4,3.5807E4,5.5764E4,2.6401E4,8.778E3,2.3458E4,2.3436E4,2.0504E4,2.6378E4,3.7986E4,2.0625E4,2.3483E4,1.0079E4,2.7961E4,1.4529E4,3.5353E4,2.5013E4,1.09067E5,2.435E4,1.1174E4,1.5848E4,1.3508E4,2.9228E4,8.877E3,1.9011E4,2.1059E4,1.322E4,1.3984E4,2.3545E4,3.1574E4,2.4118E4,1.1689E4,4.5485E4,1.0279E4,2.2347E4,4.054E3,4.679E3,4.099E3,1.1735E4,1.1723E4,1.2879E4,1.0557E4,8.758E3,1.1746E4,1.3828E4,1.255E4,1.7386E4,2.06E4,1.314E4,7.485E3,1.7812E4,5.671E3,5.167E3,4.912E3,1.3159E4,1.4802E4,7.032E3,7.497E3,2.0699E4,1.4654E4,1.808E4,6.933E3,4.2398E4,6.6669E4,2.0854E4,3.496E3,1.868E3,9.306E3,1.0847E4,5.001E3,9.411E3,4.097E3,1.0865E4,1.8363E4,4.71E3,4.167E3,1.3904E4,5.107E3,1.3621E4,7.438E3,6.852E3,6.368E3,9.256E3,4.728E3,1.4902E4,8.643E3,2.0406E4,1.1168E4,1.1812E4,1.2306E4,7.231E3,4.458E3,2.9767E4,1.5718E4,5.829E3,4.45E3,1.2335E4,1.0012E4,1.843E3,2.211E3],"tree_param":{"num_deleted":"0","num_feature":"5","num_nodes":"127","size_leaf_vector":"1"}},{"base_weights":[7.090572E-5,-4.5862007E0,6.697503E0,-8.692934E0,-1.6753945E0,3.3884895E0,9.216102E0,-1.062554E1,-7.147431E0,-3.7210467E0,-5.804933E-1,2.0390358E0,4.6817083E0,7.9337654E0,1.1225974E1,-1.1528198E1,-9.7250395E0,-7.6706877E0,-6.01199E0,-4.6264453E0,-3.0684626E0,-2.5655246E-1,-1.8017361E0,1.3363545E0,2.6237469E0,5.3072677E0,3.7601328E0,8.737915E0,6.692592E0,1.1986589E1,9.835566E0,-1.2298972E1,-1.12195215E1,-1.0113328E1,-9.207349E0,-8.192302E0,-7.227424E0,-6.3088965E0,-5.490921E0,-4.3975797E0,-5.3047824E0,-2.825402E0,-3.9701486E0,-1.5358571E0,3.6533978E-2,-2.1536295E0,-1.034305E0,1.6741042E0,2.420437E-1,3.5985844E0,2.2424245E0,4.530017E0,6.0086813E0,2.9963598E0,4.354143E0,7.655362E0,9.53731E0,5.717021E0,7.2220793E0,1.1409315E1,1.4012626E1,9.253021E0,1.1127888E1,-1.204391E0,-1.2601572E0,-1.145585E0,-1.0861971E0,-9.909278E-1,-1.0357387E0,-8.931014E-1,-9.519516E-1,-7.9607177E-1,-8.442961E-1,-6.9685096E-1,-7.682111E-1,-5.57951E-1,-6.554329E-1,-5.295988E-1,-5.8575624E-1,-4.655392E-1,-3.9985034E-1,-5.7052165E-1,-4.8994634E-1,-3.1344247E-1,-2.2107291E-1,-4.7063252E-1,-3.6122683E-1,-1.3152687E-1,-2.1166022E-1,6.6395E-2,-3.6179386E-2,-2.3692182E-1,-1.0387756E-1,-2.3495479E-1,-7.9998426E-2,2.2166264E-1,1.3581762E-1,-1.0671687E-2,1.0394986E-1,3.194017E-1,4.4387075E-1,1.8730816E-1,2.991722E-1,4.308024E-1,5.1334405E-1,5.5823916E-1,6.582401E-1,3.5449052E-1,2.4069782E-1,3.9615774E-1,5.12647E-1,8.273981E-1,7.024162E-1,1.0126532E0,8.862032E-1,6.201009E-1,5.174257E-1,8.0663395E-1,6.449507E-1,1.0533069E0,1.2081305E0,1.4720801E0,1.2970475E0,8.5445845E-1,1.0646349E0,1.1884722E0,1.020896E0],"categories":[],"categories_nodes":[],"categories_segments":[],"categories_sizes":[],"default_left":[0,0,0,0,0,0,0,0,0,0,0,0,0,0,0,0,0,0,0,0,0,0,0,0,0,0,0,0,0,0,0,0,0,0,0,0,0,0,0,0,0,0,0,0,0,0,0,0,0,0,0,0,0,0,0,0,0,0,0,0,0,0,0,0,0,0,0,0,0,0,0,0,0,0,0,0,0,0,0,0,0,0,0,0,0,0,0,0,0,0,0,0,0,0,0,0,0,0,0,0,0,0,0,0,0,0,0,0,0,0,0,0,0,0,0,0,0,0,0,0,0,0,0,0,0,0,0],"id":12,"left_children":[1,3,5,7,9,11,13,15,17,19,21,23,25,27,29,31,33,35,37,39,41,43,45,47,49,51,53,55,57,59,61,63,65,67,69,71,73,75,77,79,81,83,85,87,89,91,93,95,97,99,101,103,105,107,109,111,113,115,117,119,121,123,125,-1,-1,-1,-1,-1,-1,-1,-1,-1,-1,-1,-1,-1,-1,-1,-1,-1,-1,-1,-1,-1,-1,-1,-1,-1,-1,-1,-1,-1,-1,-1,-1,-1,-1,-1,-1,-1,-1,-1,-1,-1,-1,-1,-1,-1,-1,-1,-1,-1,-1,-1,-1,-1,-1,-1,-1,-1,-1,-1,-1,-1,-1,-1,-1],"loss_changes":[2.3037244E7,5.321423E6,2.54052E6,5.51442E5,5.834959E5,2.29909E5,4.46026E5,6.658E4,6.0913E4,5.3649125E4,6.713145E4,2.6486625E4,3.8764125E4,1.05415E5,7.1181E4,9.609E3,8.16425E3,1.6179E4,4.973625E3,5.8824375E3,1.1557156E4,5.028717E4,9.604945E3,1.0823418E4,1.3073016E4,2.18185E4,1.23295625E4,5.5419E4,2.1422375E4,5.0803E4,1.784825E4,7.515E2,2.3485E3,1.066E3,1.434625E3,1.80525E3,4.41725E3,3.6538125E3,8.0934375E2,2.9085E3,1.528875E3,7.8910938E3,2.9351094E3,3.1997344E3,2.7271209E4,5.859664E3,3.4455186E3,3.832539E3,1.9213691E3,3.3483203E3,6.9955547E3,2.5246562E3,5.1139375E3,3.8403906E3,4.61875E3,1.05795E4,1.458525E4,3.80925E3,1.7513125E4,1.9844E4,6.937E3,1.613875E4,5.0279375E3,0E0,0E0,0E0,0E0,0E0,0E0,0E0,0E0,0E0,0E0,0E0,0E0,0E0,0E0,0E0,0E0,0E0,0E0,0E0,0E0,0E0,0E0,0E0,0E0,0E0,0E0,0E0,0E0,0E0,0E0,0E0,0E0,0E0,0E0,0E0,0E0,0E0,0E0,0E0,0E0,0E0,0E0,0E0,0E0,0E0,0E0,0E0,0E0,0E0,0E0,0E0,0E0,0E0,0E0,0E0,0E0,0E0,0E0,0E0,0E0,0E0,0E0,0E0,0E0],"parents":[2147483647,0,0,1,1,2,2,3,3,4,4,5,5,6,6,7,7,8,8,9,9,10,10,11,11,12,12,13,13,14,14,15,15,16,16,17,17,18,18,19,19,20,20,21,21,22,22,23,23,24,24,25,25,26,26,27,27,28,28,29,29,30,30,31,31,32,32,33,33,34,34,35,35,36,36,37,37,38,38,39,39,40,40,41,41,42,42,43,43,44,44,45,45,46,46,47,47,48,48,49,49,50,50,51,51,52,52,53,53,54,54,55,55,56,56,57,57,58,58,59,59,60,60,61,61,62,62],"right_children":[2,4,6,8,10,12,14,16,18,20,22,24,26,28,30,32,34,36,38,40,42,44,46,48,50,52,54,56,58,60,62,64,66,68,70,72,74,76,78,80,82,84,86,88,90,92,94,96,98,100,102,104,106,108,110,112,114,116,118,120,122,124,126,-1,-1,-1,-1,-1,-1,-1,-1,-1,-1,-1,-1,-1,-1,-1,-1,-1,-1,-1,-1,-1,-1,-1,-1,-1,-1,-1,-1,-1,-1,-1,-1,-1,-1,-1,-1,-1,-1,-1,-1,-1,-1,-1,-1,-1,-1,-1,-1,-1,-1,-1,-1,-1,-1,-1,-1,-1,-1,-1,-1,-1,-1,-1,-1],"split_conditions":[6.817E1,3.905E1,9.281E1,2.308E1,5.438E1,8.059E1,1.1023E2,1.451E1,3.368E1,4.506E1,3E0,7.341E1,2E0,2E0,2E0,7.75E0,1.928E1,2.865E1,3.697E1,3E0,3E0,6.029E1,1E0,3E0,1E0,8.63E1,8.577E1,9.974E1,9.863E1,1.177E2,1E0,1E0,1.174E1,2E0,2E0,2E0,1E0,1E0,1E0,4.278E1,4.185E1,5.155E1,4.827E1,2E0,1E0,6.391E1,5.869E1,1E0,1E0,1E0,1E0,8.474E1,9.029E1,3E0,1E0,1E0,1E0,3E0,3E0,1.1385E2,1.1913E2,1.166E2,3E0,-1.204391E0,-1.2601572E0,-1.145585E0,-1.0861971E0,-9.909278E-1,-1.0357387E0,-8.931014E-1,-9.519516E-1,-7.9607177E-1,-8.442961E-1,-6.9685096E-1,-7.682111E-1,-5.57951E-1,-6.554329E-1,-5.295988E-1,-5.8575624E-1,-4.655392E-1,-3.9985034E-1,-5.7052165E-1,-4.8994634E-1,-3.1344247E-1,-2.2107291E-1,-4.7063252E-1,-3.6122683E-1,-1.3152687E-1,-2.1166022E-1,6.6395E-2,-3.6179386E-2,-2.3692182E-1,-1.0387756E-1,-2.3495479E-1,-7.9998426E-2,2.2166264E-1,1.3581762E-1,-1.0671687E-2,1.0394986E-1,3.194017E-1,4.4387075E-1,1.8730816E-1,2.991722E-1,4.308024E-1,5.1334405E-1,5.5823916E-1,6.582401E-1,3.5449052E-1,2.4069782E-1,3.9615774E-1,5.12647E-1,8.273981E-1,7.024162E-1,1.0126532E0,8.862032E-1,6.201009E-1,5.174257E-1,8.0663395E-1,6.449507E-1,1.0533069E0,1.2081305E0,1.4720801E0,1.2970475E0,8.5445845E-1,1.0646349E0,1.1884722E0,1.020896E0],"split_indices":[0,0,0,0,0,0,0,0,0,0,1,0,1,1,1,0,0,0,0,1,1,0,4,1,1,0,0,0,0,0,4,2,0,1,1,1,2,1,3,0,0,0,0,1,1,0,0,1,4,4,4,0,0,1,4,1,1,1,1,0,0,0,1,0,0,0,0,0,0,0,0,0,0,0,0,0,0,0,0,0,0,0,0,0,0,0,0,0,0,0,0,0,0,0,0,0,0,0,0,0,0,0,0,0,0,0,0,0,0,0,0,0,0,0,0,0,0,0,0,0,0,0,0,0,0,0,0],"split_type":[0,0,0,0,0,0,0,0,0,0,0,0,0,0,0,0,0,0,0,0,0,0,0,0,0,0,0,0,0,0,0,0,0,0,0,0,0,0,0,0,0,0,0,0,0,0,0,0,0,0,0,0,0,0,0,0,0,0,0,0,0,0,0,0,0,0,0,0,0,0,0,0,0,0,0,0,0,0,0,0,0,0,0,0,0,0,0,0,0,0,0,0,0,0,0,0,0,0,0,0,0,0,0,0,0,0,0,0,0,0,0,0,0,0,0,0,0,0,0,0,0,0,0,0,0,0,0],"sum_hessian":[7.5E5,4.45162E5,3.04838E5,1.84648E5,2.60514E5,1.31747E5,1.73091E5,8.2046E4,1.02602E5,9.0823E4,1.69691E5,6.4473E4,6.7274E4,1.05674E5,6.7417E4,4.0968E4,4.1078E4,7.0231E4,3.2371E4,3.804E4,5.2783E4,1.34117E5,3.5574E4,2.9284E4,3.5189E4,4.007E4,2.7204E4,6.4123E4,4.1551E4,4.3573E4,2.3844E4,1.1704E4,2.9264E4,2.3462E4,1.7616E4,3.2256E4,3.7975E4,2.0614E4,1.1757E4,2.8449E4,9.591E3,4.1579E4,1.1204E4,2.4998E4,1.09119E5,2.4389E4,1.1185E4,2.2377E4,6.907E3,9.892E3,2.5297E4,1.9011E4,2.1059E4,1.1904E4,1.53E4,2.7242E4,3.6881E4,1.4622E4,2.6929E4,3.3916E4,9.657E3,1.6441E4,7.403E3,6.373E3,5.331E3,1.76E4,1.1664E4,1.2801E4,1.0661E4,9.36E3,8.256E3,1.6783E4,1.5473E4,2.4207E4,1.3768E4,5.196E3,1.5418E4,7.686E3,4.071E3,1.7277E4,1.1172E4,4.818E3,4.773E3,2.7666E4,1.3913E4,3.661E3,7.543E3,1.8119E4,6.879E3,4.2374E4,6.6745E4,2.0436E4,3.953E3,1.69E3,9.495E3,8.233E3,1.4144E4,4.806E3,2.101E3,6.68E3,3.212E3,1.6947E4,8.35E3,1.3904E4,5.107E3,1.2088E4,8.971E3,6.163E3,5.741E3,1.0148E4,5.152E3,1.3752E4,1.349E4,1.9688E4,1.7193E4,7.724E3,6.898E3,1.2863E4,1.4066E4,1.4728E4,1.9188E4,5.742E3,3.915E3,1.0904E4,5.537E3,4.053E3,3.35E3],"tree_param":{"num_deleted":"0","num_feature":"5","num_nodes":"127","size_leaf_vector":"1"}},{"base_weights":[6.69306E-5,-4.227392E0,5.8906274E0,-7.823716E0,-1.5921425E0,2.9241495E0,8.2945795E0,-9.56309E0,-6.4327407E0,-3.4965956E0,-6.7252976E-1,1.5713605E0,4.065288E0,6.812159E0,9.730024E0,-1.0321029E1,-8.688778E0,-7.0379314E0,-5.6300235E0,-4.219181E0,-2.9545743E0,-1.7546227E0,-3.5950023E-1,1.8809549E0,5.3762686E-1,3.4056044E0,4.837803E0,7.4944334E0,5.7471094E0,8.700458E0,1.0758153E1,-1.0888296E1,-9.94352E0,-9.034056E0,-8.286719E0,-7.373122E0,-6.625595E0,-6.0311527E0,-5.1692367E0,-3.5968096E0,-4.4440727E0,-2.316979E0,-3.210313E0,-1.3354027E0,-2.304193E0,-5.9750322E-2,-1.511127E0,1.3870714E0,2.4714236E0,2.1693698E-1,1.2735226E0,3.7288513E0,2.1577513E0,5.407871E0,3.9789925E0,6.7736816E0,8.092639E0,5.3069263E0,6.6422963E0,9.459205E0,7.4965677E0,1.1184146E1,8.513955E0,-1.1197432E0,-1.0577601E0,-9.7266436E-1,-1.0210018E0,-9.187851E-1,-8.8270444E-1,-8.038009E-1,-8.5676795E-1,-7.5854343E-1,-7.1177894E-1,-6.0594136E-1,-6.841609E-1,-5.843797E-1,-6.5713376E-1,-4.8735452E-1,-5.512664E-1,-3.7996075E-1,-3.3447957E-1,-4.189504E-1,-4.9658582E-1,-2.714059E-1,-1.885107E-1,-2.9994527E-1,-3.6989006E-1,-1.5621369E-1,-8.749834E-2,-2.5381416E-1,-1.8026207E-1,-3.936794E-2,5.984245E-2,4.3825746E-2,-1.9622937E-1,1.1085283E-1,1.9942157E-1,2.1165322E-1,3.177012E-1,-1.598195E-2,6.687412E-2,1.0363882E-1,2.2981878E-1,4.252034E-1,3.4101567E-1,2.3427184E-1,1.7776193E-1,5.044551E-1,6.0724413E-1,3.6091977E-1,4.702023E-1,6.2626195E-1,7.654013E-1,7.649075E-1,8.8876706E-1,5.861313E-1,4.760016E-1,5.945432E-1,7.992733E-1,1.0061477E0,8.872116E-1,6.9440013E-1,8.6942005E-1,1.0669559E0,1.2568606E0,8.0341065E-1,9.655102E-1],"categories":[],"categories_nodes":[],"categories_segments":[],"categories_sizes":[],"default_left":[0,0,0,0,0,0,0,0,0,0,0,0,0,0,0,0,0,0,0,0,0,0,0,0,0,0,0,0,0,0,0,0,0,0,0,0,0,0,0,0,0,0,0,0,0,0,0,0,0,0,0,0,0,0,0,0,0,0,0,0,0,0,0,0,0,0,0,0,0,0,0,0,0,0,0,0,0,0,0,0,0,0,0,0,0,0,0,0,0,0,0,0,0,0,0,0,0,0,0,0,0,0,0,0,0,0,0,0,0,0,0,0,0,0,0,0,0,0,0,0,0,0,0,0,0,0,0],"id":13,"left_children":[1,3,5,7,9,11,13,15,17,19,21,23,25,27,29,31,33,35,37,39,41,43,45,47,49,51,53,55,57,59,61,63,65,67,69,71,73,75,77,79,81,83,85,87,89,91,93,95,97,99,101,103,105,107,109,111,113,115,117,119,121,123,125,-1,-1,-1,-1,-1,-1,-1,-1,-1,-1,-1,-1,-1,-1,-1,-1,-1,-1,-1,-1,-1,-1,-1,-1,-1,-1,-1,-1,-1,-1,-1,-1,-1,-1,-1,-1,-1,-1,-1,-1,-1,-1,-1,-1,-1,-1,-1,-1,-1,-1,-1,-1,-1,-1,-1,-1,-1,-1,-1,-1,-1,-1,-1,-1],"loss_changes":[1.8676626E7,4.138118E6,2.234645E6,4.46682E5,4.413262E5,2.1653275E5,3.68262E5,5.42815E4,4.98045E4,3.2125688E4,5.7561273E4,2.054064E4,3.8758625E4,6.1836E4,9.2991E4,9.302E3,5.215E3,8.03575E3,8.12175E3,4.906375E3,7.6383438E3,8.7815E3,4.550003E4,1.4400391E4,3.4910234E3,1.6547656E4,1.7135312E4,2.232325E4,1.306875E4,4.006875E4,4.19645E4,1.567125E3,1.4265E3,5.7125E2,1.16225E3,1.69475E3,3.167625E3,2.3475E3,2.058375E3,4.646328E2,3.4100625E3,2.2974531E3,3.4364688E3,2.2568594E3,1.9313359E3,2.2986752E4,2.3942535E4,4.546672E3,5.626203E3,1.7542255E3,1.0886133E3,5.4207812E3,5.897578E2,5.0543125E3,3.7222188E3,1.05455E4,9.932E3,6.732875E3,1.026475E4,9.44E3,1.11850625E4,2.62065E4,3.7680625E3,0E0,0E0,0E0,0E0,0E0,0E0,0E0,0E0,0E0,0E0,0E0,0E0,0E0,0E0,0E0,0E0,0E0,0E0,0E0,0E0,0E0,0E0,0E0,0E0,0E0,0E0,0E0,0E0,0E0,0E0,0E0,0E0,0E0,0E0,0E0,0E0,0E0,0E0,0E0,0E0,0E0,0E0,0E0,0E0,0E0,0E0,0E0,0E0,0E0,0E0,0E0,0E0,0E0,0E0,0E0,0E0,0E0,0E0,0E0,0E0,0E0,0E0,0E0,0E0],"parents":[2147483647,0,0,1,1,2,2,3,3,4,4,5,5,6,6,7,7,8,8,9,9,10,10,11,11,12,12,13,13,14,14,15,15,16,16,17,17,18,18,19,19,20,20,21,21,22,22,23,23,24,24,25,25,26,26,27,27,28,28,29,29,30,30,31,31,32,32,33,33,34,34,35,35,36,36,37,37,38,38,39,39,40,40,41,41,42,42,43,43,44,44,45,45,46,46,47,47,48,48,49,49,50,50,51,51,52,52,53,53,54,54,55,55,56,56,57,57,58,58,59,59,60,60,61,61,62,62],"right_children":[2,4,6,8,10,12,14,16,18,20,22,24,26,28,30,32,34,36,38,40,42,44,46,48,50,52,54,56,58,60,62,64,66,68,70,72,74,76,78,80,82,84,86,88,90,92,94,96,98,100,102,104,106,108,110,112,114,116,118,120,122,124,126,-1,-1,-1,-1,-1,-1,-1,-1,-1,-1,-1,-1,-1,-1,-1,-1,-1,-1,-1,-1,-1,-1,-1,-1,-1,-1,-1,-1,-1,-1,-1,-1,-1,-1,-1,-1,-1,-1,-1,-1,-1,-1,-1,-1,-1,-1,-1,-1,-1,-1,-1,-1,-1,-1,-1,-1,-1,-1,-1,-1,-1,-1,-1,-1],"split_conditions":[6.689E1,3.905E1,9.281E1,2.308E1,5.288E1,7.884E1,1.0693E2,1.513E1,3.198E1,4.46E1,5.979E1,3E0,8.63E1,2E0,1.1385E2,9.03E0,1.928E1,2.865E1,3.547E1,1E0,1E0,2E0,3E0,7.284E1,1E0,3E0,2E0,9.863E1,1E0,2E0,3E0,7.13E0,2E0,1.746E1,2E0,2.623E1,1E0,3E0,2E0,4.234E1,1E0,4.881E1,3E0,1E0,1E0,1E0,6.379E1,1E0,1E0,7.284E1,7.652E1,1E0,1E0,1E0,1E0,1E0,1E0,3E0,1.0208E2,1E0,1E0,1.1817E2,1E0,-1.1197432E0,-1.0577601E0,-9.7266436E-1,-1.0210018E0,-9.187851E-1,-8.8270444E-1,-8.038009E-1,-8.5676795E-1,-7.5854343E-1,-7.1177894E-1,-6.0594136E-1,-6.841609E-1,-5.843797E-1,-6.5713376E-1,-4.8735452E-1,-5.512664E-1,-3.7996075E-1,-3.3447957E-1,-4.189504E-1,-4.9658582E-1,-2.714059E-1,-1.885107E-1,-2.9994527E-1,-3.6989006E-1,-1.5621369E-1,-8.749834E-2,-2.5381416E-1,-1.8026207E-1,-3.936794E-2,5.984245E-2,4.3825746E-2,-1.9622937E-1,1.1085283E-1,1.9942157E-1,2.1165322E-1,3.177012E-1,-1.598195E-2,6.687412E-2,1.0363882E-1,2.2981878E-1,4.252034E-1,3.4101567E-1,2.3427184E-1,1.7776193E-1,5.044551E-1,6.0724413E-1,3.6091977E-1,4.702023E-1,6.2626195E-1,7.654013E-1,7.649075E-1,8.8876706E-1,5.861313E-1,4.760016E-1,5.945432E-1,7.992733E-1,1.0061477E0,8.872116E-1,6.9440013E-1,8.6942005E-1,1.0669559E0,1.2568606E0,8.0341065E-1,9.655102E-1],"split_indices":[0,0,0,0,0,0,0,0,0,0,0,1,0,1,0,0,0,0,0,1,1,1,1,0,4,1,1,0,4,1,1,0,1,0,1,0,1,1,1,0,3,0,1,4,4,4,0,4,4,0,0,1,3,4,4,4,4,1,0,1,4,0,4,0,0,0,0,0,0,0,0,0,0,0,0,0,0,0,0,0,0,0,0,0,0,0,0,0,0,0,0,0,0,0,0,0,0,0,0,0,0,0,0,0,0,0,0,0,0,0,0,0,0,0,0,0,0,0,0,0,0,0,0,0,0,0,0],"split_type":[0,0,0,0,0,0,0,0,0,0,0,0,0,0,0,0,0,0,0,0,0,0,0,0,0,0,0,0,0,0,0,0,0,0,0,0,0,0,0,0,0,0,0,0,0,0,0,0,0,0,0,0,0,0,0,0,0,0,0,0,0,0,0,0,0,0,0,0,0,0,0,0,0,0,0,0,0,0,0,0,0,0,0,0,0,0,0,0,0,0,0,0,0,0,0,0,0,0,0,0,0,0,0,0,0,0,0,0,0,0,0,0,0,0,0,0,0,0,0,0,0,0,0,0,0,0,0],"sum_hessian":[7.5E5,4.36639E5,3.13361E5,1.84648E5,2.51991E5,1.4027E5,1.73091E5,8.2046E4,1.02602E5,8.2056E4,1.69935E5,6.4184E4,7.6086E4,8.5155E4,8.7936E4,4.3942E4,3.8104E4,5.8494E4,4.4108E4,3.5167E4,4.6889E4,3.8128E4,1.31807E5,4.9391E4,1.4793E4,4.1043E4,3.5043E4,5.1901E4,3.3254E4,4.3942E4,4.3994E4,1.7547E4,2.6395E4,2.0488E4,1.7616E4,3.2256E4,2.6238E4,2.3574E4,2.0534E4,9.339E3,2.5828E4,1.3426E4,3.3463E4,2.1631E4,1.6497E4,1.04586E5,2.7221E4,2.6897E4,2.2494E4,1.0304E4,4.489E3,3.2597E4,8.446E3,2.1059E4,1.3984E4,2.3545E4,2.8356E4,2.2297E4,1.0957E4,2.695E4,1.6992E4,3.6972E4,7.022E3,8.778E3,8.769E3,1.4573E4,1.1822E4,1.173E4,8.758E3,9.36E3,8.256E3,1.7596E4,1.466E4,7.254E3,1.8984E4,1.7512E4,6.062E3,1.1042E4,9.492E3,5.167E3,4.172E3,1.7365E4,8.463E3,6.992E3,6.434E3,2.338E4,1.0083E4,1.4492E4,7.139E3,1.1247E4,5.25E3,6.9384E4,3.5202E4,5.116E3,2.2105E4,1.844E4,8.457E3,1.4969E4,7.525E3,5.619E3,4.685E3,3.647E3,8.42E2,1.2335E4,2.0262E4,5.678E3,2.768E3,1.3621E4,7.438E3,9.256E3,4.728E3,1.4902E4,8.643E3,1.8208E4,1.0148E4,1.1068E4,1.1229E4,7.231E3,3.726E3,1.3295E4,1.3655E4,1.1632E4,5.36E3,2.696E4,1.0012E4,4.949E3,2.073E3],"tree_param":{"num_deleted":"0","num_feature":"5","num_nodes":"127","size_leaf_vector":"1"}},{"base_weights":[6.1708124E-5,-3.8046904E0,5.30162E0,-7.0414133E0,-1.4329426E0,2.475882E0,7.348178E0,-8.606874E0,-5.789516E0,-3.14697E0,-6.052817E-1,1.414244E0,3.4862134E0,6.02725E0,8.757108E0,-9.340789E0,-7.8747153E0,-6.2168994E0,-4.8621163E0,-3.7973096E0,-2.6591413E0,-1.5364009E0,-3.0866206E-1,1.6928768E0,4.8389056E-1,3.9889436E0,2.7768219E0,7.184767E0,5.4978766E0,7.9450235E0,9.817873E0,-9.79959E0,-8.996652E0,-8.1871605E0,-7.4581413E0,